tree
version=v3
num_class=1
num_tree_per_iteration=1
label_index=0
max_feature_idx=3419
objective=binary sigmoid:1
feature_names=Column_0 Column_1 Column_2 Column_3 Column_4 Column_5 Column_6 Column_7 Column_8 Column_9 Column_10 Column_11 Column_12 Column_13 Column_14 Column_15 Column_16 Column_17 Column_18 Column_19 Column_20 Column_21 Column_22 Column_23 Column_24 Column_25 Column_26 Column_27 Column_28 Column_29 Column_30 Column_31 Column_32 Column_33 Column_34 Column_35 Column_36 Column_37 Column_38 Column_39 Column_40 Column_41 Column_42 Column_43 Column_44 Column_45 Column_46 Column_47 Column_48 Column_49 Column_50 Column_51 Column_52 Column_53 Column_54 Column_55 Column_56 Column_57 Column_58 Column_59 Column_60 Column_61 Column_62 Column_63 Column_64 Column_65 Column_66 Column_67 Column_68 Column_69 Column_70 Column_71 Column_72 Column_73 Column_74 Column_75 Column_76 Column_77 Column_78 Column_79 Column_80 Column_81 Column_82 Column_83 Column_84 Column_85 Column_86 Column_87 Column_88 Column_89 Column_90 Column_91 Column_92 Column_93 Column_94 Column_95 Column_96 Column_97 Column_98 Column_99 Column_100 Column_101 Column_102 Column_103 Column_104 Column_105 Column_106 Column_107 Column_108 Column_109 Column_110 Column_111 Column_112 Column_113 Column_114 Column_115 Column_116 Column_117 Column_118 Column_119 Column_120 Column_121 Column_122 Column_123 Column_124 Column_125 Column_126 Column_127 Column_128 Column_129 Column_130 Column_131 Column_132 Column_133 Column_134 Column_135 Column_136 Column_137 Column_138 Column_139 Column_140 Column_141 Column_142 Column_143 Column_144 Column_145 Column_146 Column_147 Column_148 Column_149 Column_150 Column_151 Column_152 Column_153 Column_154 Column_155 Column_156 Column_157 Column_158 Column_159 Column_160 Column_161 Column_162 Column_163 Column_164 Column_165 Column_166 Column_167 Column_168 Column_169 Column_170 Column_171 Column_172 Column_173 Column_174 Column_175 Column_176 Column_177 Column_178 Column_179 Column_180 Column_181 Column_182 Column_183 Column_184 Column_185 Column_186 Column_187 Column_188 Column_189 Column_190 Column_191 Column_192 Column_193 Column_194 Column_195 Column_196 Column_197 Column_198 Column_199 Column_200 Column_201 Column_202 Column_203 Column_204 Column_205 Column_206 Column_207 Column_208 Column_209 Column_210 Column_211 Column_212 Column_213 Column_214 Column_215 Column_216 Column_217 Column_218 Column_219 Column_220 Column_221 Column_222 Column_223 Column_224 Column_225 Column_226 Column_227 Column_228 Column_229 Column_230 Column_231 Column_232 Column_233 Column_234 Column_235 Column_236 Column_237 Column_238 Column_239 Column_240 Column_241 Column_242 Column_243 Column_244 Column_245 Column_246 Column_247 Column_248 Column_249 Column_250 Column_251 Column_252 Column_253 Column_254 Column_255 Column_256 Column_257 Column_258 Column_259 Column_260 Column_261 Column_262 Column_263 Column_264 Column_265 Column_266 Column_267 Column_268 Column_269 Column_270 Column_271 Column_272 Column_273 Column_274 Column_275 Column_276 Column_277 Column_278 Column_279 Column_280 Column_281 Column_282 Column_283 Column_284 Column_285 Column_286 Column_287 Column_288 Column_289 Column_290 Column_291 Column_292 Column_293 Column_294 Column_295 Column_296 Column_297 Column_298 Column_299 Column_300 Column_301 Column_302 Column_303 Column_304 Column_305 Column_306 Column_307 Column_308 Column_309 Column_310 Column_311 Column_312 Column_313 Column_314 Column_315 Column_316 Column_317 Column_318 Column_319 Column_320 Column_321 Column_322 Column_323 Column_324 Column_325 Column_326 Column_327 Column_328 Column_329 Column_330 Column_331 Column_332 Column_333 Column_334 Column_335 Column_336 Column_337 Column_338 Column_339 Column_340 Column_341 Column_342 Column_343 Column_344 Column_345 Column_346 Column_347 Column_348 Column_349 Column_350 Column_351 Column_352 Column_353 Column_354 Column_355 Column_356 Column_357 Column_358 Column_359 Column_360 Column_361 Column_362 Column_363 Column_364 Column_365 Column_366 Column_367 Column_368 Column_369 Column_370 Column_371 Column_372 Column_373 Column_374 Column_375 Column_376 Column_377 Column_378 Column_379 Column_380 Column_381 Column_382 Column_383 Column_384 Column_385 Column_386 Column_387 Column_388 Column_389 Column_390 Column_391 Column_392 Column_393 Column_394 Column_395 Column_396 Column_397 Column_398 Column_399 Column_400 Column_401 Column_402 Column_403 Column_404 Column_405 Column_406 Column_407 Column_408 Column_409 Column_410 Column_411 Column_412 Column_413 Column_414 Column_415 Column_416 Column_417 Column_418 Column_419 Column_420 Column_421 Column_422 Column_423 Column_424 Column_425 Column_426 Column_427 Column_428 Column_429 Column_430 Column_431 Column_432 Column_433 Column_434 Column_435 Column_436 Column_437 Column_438 Column_439 Column_440 Column_441 Column_442 Column_443 Column_444 Column_445 Column_446 Column_447 Column_448 Column_449 Column_450 Column_451 Column_452 Column_453 Column_454 Column_455 Column_456 Column_457 Column_458 Column_459 Column_460 Column_461 Column_462 Column_463 Column_464 Column_465 Column_466 Column_467 Column_468 Column_469 Column_470 Column_471 Column_472 Column_473 Column_474 Column_475 Column_476 Column_477 Column_478 Column_479 Column_480 Column_481 Column_482 Column_483 Column_484 Column_485 Column_486 Column_487 Column_488 Column_489 Column_490 Column_491 Column_492 Column_493 Column_494 Column_495 Column_496 Column_497 Column_498 Column_499 Column_500 Column_501 Column_502 Column_503 Column_504 Column_505 Column_506 Column_507 Column_508 Column_509 Column_510 Column_511 Column_512 Column_513 Column_514 Column_515 Column_516 Column_517 Column_518 Column_519 Column_520 Column_521 Column_522 Column_523 Column_524 Column_525 Column_526 Column_527 Column_528 Column_529 Column_530 Column_531 Column_532 Column_533 Column_534 Column_535 Column_536 Column_537 Column_538 Column_539 Column_540 Column_541 Column_542 Column_543 Column_544 Column_545 Column_546 Column_547 Column_548 Column_549 Column_550 Column_551 Column_552 Column_553 Column_554 Column_555 Column_556 Column_557 Column_558 Column_559 Column_560 Column_561 Column_562 Column_563 Column_564 Column_565 Column_566 Column_567 Column_568 Column_569 Column_570 Column_571 Column_572 Column_573 Column_574 Column_575 Column_576 Column_577 Column_578 Column_579 Column_580 Column_581 Column_582 Column_583 Column_584 Column_585 Column_586 Column_587 Column_588 Column_589 Column_590 Column_591 Column_592 Column_593 Column_594 Column_595 Column_596 Column_597 Column_598 Column_599 Column_600 Column_601 Column_602 Column_603 Column_604 Column_605 Column_606 Column_607 Column_608 Column_609 Column_610 Column_611 Column_612 Column_613 Column_614 Column_615 Column_616 Column_617 Column_618 Column_619 Column_620 Column_621 Column_622 Column_623 Column_624 Column_625 Column_626 Column_627 Column_628 Column_629 Column_630 Column_631 Column_632 Column_633 Column_634 Column_635 Column_636 Column_637 Column_638 Column_639 Column_640 Column_641 Column_642 Column_643 Column_644 Column_645 Column_646 Column_647 Column_648 Column_649 Column_650 Column_651 Column_652 Column_653 Column_654 Column_655 Column_656 Column_657 Column_658 Column_659 Column_660 Column_661 Column_662 Column_663 Column_664 Column_665 Column_666 Column_667 Column_668 Column_669 Column_670 Column_671 Column_672 Column_673 Column_674 Column_675 Column_676 Column_677 Column_678 Column_679 Column_680 Column_681 Column_682 Column_683 Column_684 Column_685 Column_686 Column_687 Column_688 Column_689 Column_690 Column_691 Column_692 Column_693 Column_694 Column_695 Column_696 Column_697 Column_698 Column_699 Column_700 Column_701 Column_702 Column_703 Column_704 Column_705 Column_706 Column_707 Column_708 Column_709 Column_710 Column_711 Column_712 Column_713 Column_714 Column_715 Column_716 Column_717 Column_718 Column_719 Column_720 Column_721 Column_722 Column_723 Column_724 Column_725 Column_726 Column_727 Column_728 Column_729 Column_730 Column_731 Column_732 Column_733 Column_734 Column_735 Column_736 Column_737 Column_738 Column_739 Column_740 Column_741 Column_742 Column_743 Column_744 Column_745 Column_746 Column_747 Column_748 Column_749 Column_750 Column_751 Column_752 Column_753 Column_754 Column_755 Column_756 Column_757 Column_758 Column_759 Column_760 Column_761 Column_762 Column_763 Column_764 Column_765 Column_766 Column_767 Column_768 Column_769 Column_770 Column_771 Column_772 Column_773 Column_774 Column_775 Column_776 Column_777 Column_778 Column_779 Column_780 Column_781 Column_782 Column_783 Column_784 Column_785 Column_786 Column_787 Column_788 Column_789 Column_790 Column_791 Column_792 Column_793 Column_794 Column_795 Column_796 Column_797 Column_798 Column_799 Column_800 Column_801 Column_802 Column_803 Column_804 Column_805 Column_806 Column_807 Column_808 Column_809 Column_810 Column_811 Column_812 Column_813 Column_814 Column_815 Column_816 Column_817 Column_818 Column_819 Column_820 Column_821 Column_822 Column_823 Column_824 Column_825 Column_826 Column_827 Column_828 Column_829 Column_830 Column_831 Column_832 Column_833 Column_834 Column_835 Column_836 Column_837 Column_838 Column_839 Column_840 Column_841 Column_842 Column_843 Column_844 Column_845 Column_846 Column_847 Column_848 Column_849 Column_850 Column_851 Column_852 Column_853 Column_854 Column_855 Column_856 Column_857 Column_858 Column_859 Column_860 Column_861 Column_862 Column_863 Column_864 Column_865 Column_866 Column_867 Column_868 Column_869 Column_870 Column_871 Column_872 Column_873 Column_874 Column_875 Column_876 Column_877 Column_878 Column_879 Column_880 Column_881 Column_882 Column_883 Column_884 Column_885 Column_886 Column_887 Column_888 Column_889 Column_890 Column_891 Column_892 Column_893 Column_894 Column_895 Column_896 Column_897 Column_898 Column_899 Column_900 Column_901 Column_902 Column_903 Column_904 Column_905 Column_906 Column_907 Column_908 Column_909 Column_910 Column_911 Column_912 Column_913 Column_914 Column_915 Column_916 Column_917 Column_918 Column_919 Column_920 Column_921 Column_922 Column_923 Column_924 Column_925 Column_926 Column_927 Column_928 Column_929 Column_930 Column_931 Column_932 Column_933 Column_934 Column_935 Column_936 Column_937 Column_938 Column_939 Column_940 Column_941 Column_942 Column_943 Column_944 Column_945 Column_946 Column_947 Column_948 Column_949 Column_950 Column_951 Column_952 Column_953 Column_954 Column_955 Column_956 Column_957 Column_958 Column_959 Column_960 Column_961 Column_962 Column_963 Column_964 Column_965 Column_966 Column_967 Column_968 Column_969 Column_970 Column_971 Column_972 Column_973 Column_974 Column_975 Column_976 Column_977 Column_978 Column_979 Column_980 Column_981 Column_982 Column_983 Column_984 Column_985 Column_986 Column_987 Column_988 Column_989 Column_990 Column_991 Column_992 Column_993 Column_994 Column_995 Column_996 Column_997 Column_998 Column_999 Column_1000 Column_1001 Column_1002 Column_1003 Column_1004 Column_1005 Column_1006 Column_1007 Column_1008 Column_1009 Column_1010 Column_1011 Column_1012 Column_1013 Column_1014 Column_1015 Column_1016 Column_1017 Column_1018 Column_1019 Column_1020 Column_1021 Column_1022 Column_1023 Column_1024 Column_1025 Column_1026 Column_1027 Column_1028 Column_1029 Column_1030 Column_1031 Column_1032 Column_1033 Column_1034 Column_1035 Column_1036 Column_1037 Column_1038 Column_1039 Column_1040 Column_1041 Column_1042 Column_1043 Column_1044 Column_1045 Column_1046 Column_1047 Column_1048 Column_1049 Column_1050 Column_1051 Column_1052 Column_1053 Column_1054 Column_1055 Column_1056 Column_1057 Column_1058 Column_1059 Column_1060 Column_1061 Column_1062 Column_1063 Column_1064 Column_1065 Column_1066 Column_1067 Column_1068 Column_1069 Column_1070 Column_1071 Column_1072 Column_1073 Column_1074 Column_1075 Column_1076 Column_1077 Column_1078 Column_1079 Column_1080 Column_1081 Column_1082 Column_1083 Column_1084 Column_1085 Column_1086 Column_1087 Column_1088 Column_1089 Column_1090 Column_1091 Column_1092 Column_1093 Column_1094 Column_1095 Column_1096 Column_1097 Column_1098 Column_1099 Column_1100 Column_1101 Column_1102 Column_1103 Column_1104 Column_1105 Column_1106 Column_1107 Column_1108 Column_1109 Column_1110 Column_1111 Column_1112 Column_1113 Column_1114 Column_1115 Column_1116 Column_1117 Column_1118 Column_1119 Column_1120 Column_1121 Column_1122 Column_1123 Column_1124 Column_1125 Column_1126 Column_1127 Column_1128 Column_1129 Column_1130 Column_1131 Column_1132 Column_1133 Column_1134 Column_1135 Column_1136 Column_1137 Column_1138 Column_1139 Column_1140 Column_1141 Column_1142 Column_1143 Column_1144 Column_1145 Column_1146 Column_1147 Column_1148 Column_1149 Column_1150 Column_1151 Column_1152 Column_1153 Column_1154 Column_1155 Column_1156 Column_1157 Column_1158 Column_1159 Column_1160 Column_1161 Column_1162 Column_1163 Column_1164 Column_1165 Column_1166 Column_1167 Column_1168 Column_1169 Column_1170 Column_1171 Column_1172 Column_1173 Column_1174 Column_1175 Column_1176 Column_1177 Column_1178 Column_1179 Column_1180 Column_1181 Column_1182 Column_1183 Column_1184 Column_1185 Column_1186 Column_1187 Column_1188 Column_1189 Column_1190 Column_1191 Column_1192 Column_1193 Column_1194 Column_1195 Column_1196 Column_1197 Column_1198 Column_1199 Column_1200 Column_1201 Column_1202 Column_1203 Column_1204 Column_1205 Column_1206 Column_1207 Column_1208 Column_1209 Column_1210 Column_1211 Column_1212 Column_1213 Column_1214 Column_1215 Column_1216 Column_1217 Column_1218 Column_1219 Column_1220 Column_1221 Column_1222 Column_1223 Column_1224 Column_1225 Column_1226 Column_1227 Column_1228 Column_1229 Column_1230 Column_1231 Column_1232 Column_1233 Column_1234 Column_1235 Column_1236 Column_1237 Column_1238 Column_1239 Column_1240 Column_1241 Column_1242 Column_1243 Column_1244 Column_1245 Column_1246 Column_1247 Column_1248 Column_1249 Column_1250 Column_1251 Column_1252 Column_1253 Column_1254 Column_1255 Column_1256 Column_1257 Column_1258 Column_1259 Column_1260 Column_1261 Column_1262 Column_1263 Column_1264 Column_1265 Column_1266 Column_1267 Column_1268 Column_1269 Column_1270 Column_1271 Column_1272 Column_1273 Column_1274 Column_1275 Column_1276 Column_1277 Column_1278 Column_1279 Column_1280 Column_1281 Column_1282 Column_1283 Column_1284 Column_1285 Column_1286 Column_1287 Column_1288 Column_1289 Column_1290 Column_1291 Column_1292 Column_1293 Column_1294 Column_1295 Column_1296 Column_1297 Column_1298 Column_1299 Column_1300 Column_1301 Column_1302 Column_1303 Column_1304 Column_1305 Column_1306 Column_1307 Column_1308 Column_1309 Column_1310 Column_1311 Column_1312 Column_1313 Column_1314 Column_1315 Column_1316 Column_1317 Column_1318 Column_1319 Column_1320 Column_1321 Column_1322 Column_1323 Column_1324 Column_1325 Column_1326 Column_1327 Column_1328 Column_1329 Column_1330 Column_1331 Column_1332 Column_1333 Column_1334 Column_1335 Column_1336 Column_1337 Column_1338 Column_1339 Column_1340 Column_1341 Column_1342 Column_1343 Column_1344 Column_1345 Column_1346 Column_1347 Column_1348 Column_1349 Column_1350 Column_1351 Column_1352 Column_1353 Column_1354 Column_1355 Column_1356 Column_1357 Column_1358 Column_1359 Column_1360 Column_1361 Column_1362 Column_1363 Column_1364 Column_1365 Column_1366 Column_1367 Column_1368 Column_1369 Column_1370 Column_1371 Column_1372 Column_1373 Column_1374 Column_1375 Column_1376 Column_1377 Column_1378 Column_1379 Column_1380 Column_1381 Column_1382 Column_1383 Column_1384 Column_1385 Column_1386 Column_1387 Column_1388 Column_1389 Column_1390 Column_1391 Column_1392 Column_1393 Column_1394 Column_1395 Column_1396 Column_1397 Column_1398 Column_1399 Column_1400 Column_1401 Column_1402 Column_1403 Column_1404 Column_1405 Column_1406 Column_1407 Column_1408 Column_1409 Column_1410 Column_1411 Column_1412 Column_1413 Column_1414 Column_1415 Column_1416 Column_1417 Column_1418 Column_1419 Column_1420 Column_1421 Column_1422 Column_1423 Column_1424 Column_1425 Column_1426 Column_1427 Column_1428 Column_1429 Column_1430 Column_1431 Column_1432 Column_1433 Column_1434 Column_1435 Column_1436 Column_1437 Column_1438 Column_1439 Column_1440 Column_1441 Column_1442 Column_1443 Column_1444 Column_1445 Column_1446 Column_1447 Column_1448 Column_1449 Column_1450 Column_1451 Column_1452 Column_1453 Column_1454 Column_1455 Column_1456 Column_1457 Column_1458 Column_1459 Column_1460 Column_1461 Column_1462 Column_1463 Column_1464 Column_1465 Column_1466 Column_1467 Column_1468 Column_1469 Column_1470 Column_1471 Column_1472 Column_1473 Column_1474 Column_1475 Column_1476 Column_1477 Column_1478 Column_1479 Column_1480 Column_1481 Column_1482 Column_1483 Column_1484 Column_1485 Column_1486 Column_1487 Column_1488 Column_1489 Column_1490 Column_1491 Column_1492 Column_1493 Column_1494 Column_1495 Column_1496 Column_1497 Column_1498 Column_1499 Column_1500 Column_1501 Column_1502 Column_1503 Column_1504 Column_1505 Column_1506 Column_1507 Column_1508 Column_1509 Column_1510 Column_1511 Column_1512 Column_1513 Column_1514 Column_1515 Column_1516 Column_1517 Column_1518 Column_1519 Column_1520 Column_1521 Column_1522 Column_1523 Column_1524 Column_1525 Column_1526 Column_1527 Column_1528 Column_1529 Column_1530 Column_1531 Column_1532 Column_1533 Column_1534 Column_1535 Column_1536 Column_1537 Column_1538 Column_1539 Column_1540 Column_1541 Column_1542 Column_1543 Column_1544 Column_1545 Column_1546 Column_1547 Column_1548 Column_1549 Column_1550 Column_1551 Column_1552 Column_1553 Column_1554 Column_1555 Column_1556 Column_1557 Column_1558 Column_1559 Column_1560 Column_1561 Column_1562 Column_1563 Column_1564 Column_1565 Column_1566 Column_1567 Column_1568 Column_1569 Column_1570 Column_1571 Column_1572 Column_1573 Column_1574 Column_1575 Column_1576 Column_1577 Column_1578 Column_1579 Column_1580 Column_1581 Column_1582 Column_1583 Column_1584 Column_1585 Column_1586 Column_1587 Column_1588 Column_1589 Column_1590 Column_1591 Column_1592 Column_1593 Column_1594 Column_1595 Column_1596 Column_1597 Column_1598 Column_1599 Column_1600 Column_1601 Column_1602 Column_1603 Column_1604 Column_1605 Column_1606 Column_1607 Column_1608 Column_1609 Column_1610 Column_1611 Column_1612 Column_1613 Column_1614 Column_1615 Column_1616 Column_1617 Column_1618 Column_1619 Column_1620 Column_1621 Column_1622 Column_1623 Column_1624 Column_1625 Column_1626 Column_1627 Column_1628 Column_1629 Column_1630 Column_1631 Column_1632 Column_1633 Column_1634 Column_1635 Column_1636 Column_1637 Column_1638 Column_1639 Column_1640 Column_1641 Column_1642 Column_1643 Column_1644 Column_1645 Column_1646 Column_1647 Column_1648 Column_1649 Column_1650 Column_1651 Column_1652 Column_1653 Column_1654 Column_1655 Column_1656 Column_1657 Column_1658 Column_1659 Column_1660 Column_1661 Column_1662 Column_1663 Column_1664 Column_1665 Column_1666 Column_1667 Column_1668 Column_1669 Column_1670 Column_1671 Column_1672 Column_1673 Column_1674 Column_1675 Column_1676 Column_1677 Column_1678 Column_1679 Column_1680 Column_1681 Column_1682 Column_1683 Column_1684 Column_1685 Column_1686 Column_1687 Column_1688 Column_1689 Column_1690 Column_1691 Column_1692 Column_1693 Column_1694 Column_1695 Column_1696 Column_1697 Column_1698 Column_1699 Column_1700 Column_1701 Column_1702 Column_1703 Column_1704 Column_1705 Column_1706 Column_1707 Column_1708 Column_1709 Column_1710 Column_1711 Column_1712 Column_1713 Column_1714 Column_1715 Column_1716 Column_1717 Column_1718 Column_1719 Column_1720 Column_1721 Column_1722 Column_1723 Column_1724 Column_1725 Column_1726 Column_1727 Column_1728 Column_1729 Column_1730 Column_1731 Column_1732 Column_1733 Column_1734 Column_1735 Column_1736 Column_1737 Column_1738 Column_1739 Column_1740 Column_1741 Column_1742 Column_1743 Column_1744 Column_1745 Column_1746 Column_1747 Column_1748 Column_1749 Column_1750 Column_1751 Column_1752 Column_1753 Column_1754 Column_1755 Column_1756 Column_1757 Column_1758 Column_1759 Column_1760 Column_1761 Column_1762 Column_1763 Column_1764 Column_1765 Column_1766 Column_1767 Column_1768 Column_1769 Column_1770 Column_1771 Column_1772 Column_1773 Column_1774 Column_1775 Column_1776 Column_1777 Column_1778 Column_1779 Column_1780 Column_1781 Column_1782 Column_1783 Column_1784 Column_1785 Column_1786 Column_1787 Column_1788 Column_1789 Column_1790 Column_1791 Column_1792 Column_1793 Column_1794 Column_1795 Column_1796 Column_1797 Column_1798 Column_1799 Column_1800 Column_1801 Column_1802 Column_1803 Column_1804 Column_1805 Column_1806 Column_1807 Column_1808 Column_1809 Column_1810 Column_1811 Column_1812 Column_1813 Column_1814 Column_1815 Column_1816 Column_1817 Column_1818 Column_1819 Column_1820 Column_1821 Column_1822 Column_1823 Column_1824 Column_1825 Column_1826 Column_1827 Column_1828 Column_1829 Column_1830 Column_1831 Column_1832 Column_1833 Column_1834 Column_1835 Column_1836 Column_1837 Column_1838 Column_1839 Column_1840 Column_1841 Column_1842 Column_1843 Column_1844 Column_1845 Column_1846 Column_1847 Column_1848 Column_1849 Column_1850 Column_1851 Column_1852 Column_1853 Column_1854 Column_1855 Column_1856 Column_1857 Column_1858 Column_1859 Column_1860 Column_1861 Column_1862 Column_1863 Column_1864 Column_1865 Column_1866 Column_1867 Column_1868 Column_1869 Column_1870 Column_1871 Column_1872 Column_1873 Column_1874 Column_1875 Column_1876 Column_1877 Column_1878 Column_1879 Column_1880 Column_1881 Column_1882 Column_1883 Column_1884 Column_1885 Column_1886 Column_1887 Column_1888 Column_1889 Column_1890 Column_1891 Column_1892 Column_1893 Column_1894 Column_1895 Column_1896 Column_1897 Column_1898 Column_1899 Column_1900 Column_1901 Column_1902 Column_1903 Column_1904 Column_1905 Column_1906 Column_1907 Column_1908 Column_1909 Column_1910 Column_1911 Column_1912 Column_1913 Column_1914 Column_1915 Column_1916 Column_1917 Column_1918 Column_1919 Column_1920 Column_1921 Column_1922 Column_1923 Column_1924 Column_1925 Column_1926 Column_1927 Column_1928 Column_1929 Column_1930 Column_1931 Column_1932 Column_1933 Column_1934 Column_1935 Column_1936 Column_1937 Column_1938 Column_1939 Column_1940 Column_1941 Column_1942 Column_1943 Column_1944 Column_1945 Column_1946 Column_1947 Column_1948 Column_1949 Column_1950 Column_1951 Column_1952 Column_1953 Column_1954 Column_1955 Column_1956 Column_1957 Column_1958 Column_1959 Column_1960 Column_1961 Column_1962 Column_1963 Column_1964 Column_1965 Column_1966 Column_1967 Column_1968 Column_1969 Column_1970 Column_1971 Column_1972 Column_1973 Column_1974 Column_1975 Column_1976 Column_1977 Column_1978 Column_1979 Column_1980 Column_1981 Column_1982 Column_1983 Column_1984 Column_1985 Column_1986 Column_1987 Column_1988 Column_1989 Column_1990 Column_1991 Column_1992 Column_1993 Column_1994 Column_1995 Column_1996 Column_1997 Column_1998 Column_1999 Column_2000 Column_2001 Column_2002 Column_2003 Column_2004 Column_2005 Column_2006 Column_2007 Column_2008 Column_2009 Column_2010 Column_2011 Column_2012 Column_2013 Column_2014 Column_2015 Column_2016 Column_2017 Column_2018 Column_2019 Column_2020 Column_2021 Column_2022 Column_2023 Column_2024 Column_2025 Column_2026 Column_2027 Column_2028 Column_2029 Column_2030 Column_2031 Column_2032 Column_2033 Column_2034 Column_2035 Column_2036 Column_2037 Column_2038 Column_2039 Column_2040 Column_2041 Column_2042 Column_2043 Column_2044 Column_2045 Column_2046 Column_2047 Column_2048 Column_2049 Column_2050 Column_2051 Column_2052 Column_2053 Column_2054 Column_2055 Column_2056 Column_2057 Column_2058 Column_2059 Column_2060 Column_2061 Column_2062 Column_2063 Column_2064 Column_2065 Column_2066 Column_2067 Column_2068 Column_2069 Column_2070 Column_2071 Column_2072 Column_2073 Column_2074 Column_2075 Column_2076 Column_2077 Column_2078 Column_2079 Column_2080 Column_2081 Column_2082 Column_2083 Column_2084 Column_2085 Column_2086 Column_2087 Column_2088 Column_2089 Column_2090 Column_2091 Column_2092 Column_2093 Column_2094 Column_2095 Column_2096 Column_2097 Column_2098 Column_2099 Column_2100 Column_2101 Column_2102 Column_2103 Column_2104 Column_2105 Column_2106 Column_2107 Column_2108 Column_2109 Column_2110 Column_2111 Column_2112 Column_2113 Column_2114 Column_2115 Column_2116 Column_2117 Column_2118 Column_2119 Column_2120 Column_2121 Column_2122 Column_2123 Column_2124 Column_2125 Column_2126 Column_2127 Column_2128 Column_2129 Column_2130 Column_2131 Column_2132 Column_2133 Column_2134 Column_2135 Column_2136 Column_2137 Column_2138 Column_2139 Column_2140 Column_2141 Column_2142 Column_2143 Column_2144 Column_2145 Column_2146 Column_2147 Column_2148 Column_2149 Column_2150 Column_2151 Column_2152 Column_2153 Column_2154 Column_2155 Column_2156 Column_2157 Column_2158 Column_2159 Column_2160 Column_2161 Column_2162 Column_2163 Column_2164 Column_2165 Column_2166 Column_2167 Column_2168 Column_2169 Column_2170 Column_2171 Column_2172 Column_2173 Column_2174 Column_2175 Column_2176 Column_2177 Column_2178 Column_2179 Column_2180 Column_2181 Column_2182 Column_2183 Column_2184 Column_2185 Column_2186 Column_2187 Column_2188 Column_2189 Column_2190 Column_2191 Column_2192 Column_2193 Column_2194 Column_2195 Column_2196 Column_2197 Column_2198 Column_2199 Column_2200 Column_2201 Column_2202 Column_2203 Column_2204 Column_2205 Column_2206 Column_2207 Column_2208 Column_2209 Column_2210 Column_2211 Column_2212 Column_2213 Column_2214 Column_2215 Column_2216 Column_2217 Column_2218 Column_2219 Column_2220 Column_2221 Column_2222 Column_2223 Column_2224 Column_2225 Column_2226 Column_2227 Column_2228 Column_2229 Column_2230 Column_2231 Column_2232 Column_2233 Column_2234 Column_2235 Column_2236 Column_2237 Column_2238 Column_2239 Column_2240 Column_2241 Column_2242 Column_2243 Column_2244 Column_2245 Column_2246 Column_2247 Column_2248 Column_2249 Column_2250 Column_2251 Column_2252 Column_2253 Column_2254 Column_2255 Column_2256 Column_2257 Column_2258 Column_2259 Column_2260 Column_2261 Column_2262 Column_2263 Column_2264 Column_2265 Column_2266 Column_2267 Column_2268 Column_2269 Column_2270 Column_2271 Column_2272 Column_2273 Column_2274 Column_2275 Column_2276 Column_2277 Column_2278 Column_2279 Column_2280 Column_2281 Column_2282 Column_2283 Column_2284 Column_2285 Column_2286 Column_2287 Column_2288 Column_2289 Column_2290 Column_2291 Column_2292 Column_2293 Column_2294 Column_2295 Column_2296 Column_2297 Column_2298 Column_2299 Column_2300 Column_2301 Column_2302 Column_2303 Column_2304 Column_2305 Column_2306 Column_2307 Column_2308 Column_2309 Column_2310 Column_2311 Column_2312 Column_2313 Column_2314 Column_2315 Column_2316 Column_2317 Column_2318 Column_2319 Column_2320 Column_2321 Column_2322 Column_2323 Column_2324 Column_2325 Column_2326 Column_2327 Column_2328 Column_2329 Column_2330 Column_2331 Column_2332 Column_2333 Column_2334 Column_2335 Column_2336 Column_2337 Column_2338 Column_2339 Column_2340 Column_2341 Column_2342 Column_2343 Column_2344 Column_2345 Column_2346 Column_2347 Column_2348 Column_2349 Column_2350 Column_2351 Column_2352 Column_2353 Column_2354 Column_2355 Column_2356 Column_2357 Column_2358 Column_2359 Column_2360 Column_2361 Column_2362 Column_2363 Column_2364 Column_2365 Column_2366 Column_2367 Column_2368 Column_2369 Column_2370 Column_2371 Column_2372 Column_2373 Column_2374 Column_2375 Column_2376 Column_2377 Column_2378 Column_2379 Column_2380 Column_2381 Column_2382 Column_2383 Column_2384 Column_2385 Column_2386 Column_2387 Column_2388 Column_2389 Column_2390 Column_2391 Column_2392 Column_2393 Column_2394 Column_2395 Column_2396 Column_2397 Column_2398 Column_2399 Column_2400 Column_2401 Column_2402 Column_2403 Column_2404 Column_2405 Column_2406 Column_2407 Column_2408 Column_2409 Column_2410 Column_2411 Column_2412 Column_2413 Column_2414 Column_2415 Column_2416 Column_2417 Column_2418 Column_2419 Column_2420 Column_2421 Column_2422 Column_2423 Column_2424 Column_2425 Column_2426 Column_2427 Column_2428 Column_2429 Column_2430 Column_2431 Column_2432 Column_2433 Column_2434 Column_2435 Column_2436 Column_2437 Column_2438 Column_2439 Column_2440 Column_2441 Column_2442 Column_2443 Column_2444 Column_2445 Column_2446 Column_2447 Column_2448 Column_2449 Column_2450 Column_2451 Column_2452 Column_2453 Column_2454 Column_2455 Column_2456 Column_2457 Column_2458 Column_2459 Column_2460 Column_2461 Column_2462 Column_2463 Column_2464 Column_2465 Column_2466 Column_2467 Column_2468 Column_2469 Column_2470 Column_2471 Column_2472 Column_2473 Column_2474 Column_2475 Column_2476 Column_2477 Column_2478 Column_2479 Column_2480 Column_2481 Column_2482 Column_2483 Column_2484 Column_2485 Column_2486 Column_2487 Column_2488 Column_2489 Column_2490 Column_2491 Column_2492 Column_2493 Column_2494 Column_2495 Column_2496 Column_2497 Column_2498 Column_2499 Column_2500 Column_2501 Column_2502 Column_2503 Column_2504 Column_2505 Column_2506 Column_2507 Column_2508 Column_2509 Column_2510 Column_2511 Column_2512 Column_2513 Column_2514 Column_2515 Column_2516 Column_2517 Column_2518 Column_2519 Column_2520 Column_2521 Column_2522 Column_2523 Column_2524 Column_2525 Column_2526 Column_2527 Column_2528 Column_2529 Column_2530 Column_2531 Column_2532 Column_2533 Column_2534 Column_2535 Column_2536 Column_2537 Column_2538 Column_2539 Column_2540 Column_2541 Column_2542 Column_2543 Column_2544 Column_2545 Column_2546 Column_2547 Column_2548 Column_2549 Column_2550 Column_2551 Column_2552 Column_2553 Column_2554 Column_2555 Column_2556 Column_2557 Column_2558 Column_2559 Column_2560 Column_2561 Column_2562 Column_2563 Column_2564 Column_2565 Column_2566 Column_2567 Column_2568 Column_2569 Column_2570 Column_2571 Column_2572 Column_2573 Column_2574 Column_2575 Column_2576 Column_2577 Column_2578 Column_2579 Column_2580 Column_2581 Column_2582 Column_2583 Column_2584 Column_2585 Column_2586 Column_2587 Column_2588 Column_2589 Column_2590 Column_2591 Column_2592 Column_2593 Column_2594 Column_2595 Column_2596 Column_2597 Column_2598 Column_2599 Column_2600 Column_2601 Column_2602 Column_2603 Column_2604 Column_2605 Column_2606 Column_2607 Column_2608 Column_2609 Column_2610 Column_2611 Column_2612 Column_2613 Column_2614 Column_2615 Column_2616 Column_2617 Column_2618 Column_2619 Column_2620 Column_2621 Column_2622 Column_2623 Column_2624 Column_2625 Column_2626 Column_2627 Column_2628 Column_2629 Column_2630 Column_2631 Column_2632 Column_2633 Column_2634 Column_2635 Column_2636 Column_2637 Column_2638 Column_2639 Column_2640 Column_2641 Column_2642 Column_2643 Column_2644 Column_2645 Column_2646 Column_2647 Column_2648 Column_2649 Column_2650 Column_2651 Column_2652 Column_2653 Column_2654 Column_2655 Column_2656 Column_2657 Column_2658 Column_2659 Column_2660 Column_2661 Column_2662 Column_2663 Column_2664 Column_2665 Column_2666 Column_2667 Column_2668 Column_2669 Column_2670 Column_2671 Column_2672 Column_2673 Column_2674 Column_2675 Column_2676 Column_2677 Column_2678 Column_2679 Column_2680 Column_2681 Column_2682 Column_2683 Column_2684 Column_2685 Column_2686 Column_2687 Column_2688 Column_2689 Column_2690 Column_2691 Column_2692 Column_2693 Column_2694 Column_2695 Column_2696 Column_2697 Column_2698 Column_2699 Column_2700 Column_2701 Column_2702 Column_2703 Column_2704 Column_2705 Column_2706 Column_2707 Column_2708 Column_2709 Column_2710 Column_2711 Column_2712 Column_2713 Column_2714 Column_2715 Column_2716 Column_2717 Column_2718 Column_2719 Column_2720 Column_2721 Column_2722 Column_2723 Column_2724 Column_2725 Column_2726 Column_2727 Column_2728 Column_2729 Column_2730 Column_2731 Column_2732 Column_2733 Column_2734 Column_2735 Column_2736 Column_2737 Column_2738 Column_2739 Column_2740 Column_2741 Column_2742 Column_2743 Column_2744 Column_2745 Column_2746 Column_2747 Column_2748 Column_2749 Column_2750 Column_2751 Column_2752 Column_2753 Column_2754 Column_2755 Column_2756 Column_2757 Column_2758 Column_2759 Column_2760 Column_2761 Column_2762 Column_2763 Column_2764 Column_2765 Column_2766 Column_2767 Column_2768 Column_2769 Column_2770 Column_2771 Column_2772 Column_2773 Column_2774 Column_2775 Column_2776 Column_2777 Column_2778 Column_2779 Column_2780 Column_2781 Column_2782 Column_2783 Column_2784 Column_2785 Column_2786 Column_2787 Column_2788 Column_2789 Column_2790 Column_2791 Column_2792 Column_2793 Column_2794 Column_2795 Column_2796 Column_2797 Column_2798 Column_2799 Column_2800 Column_2801 Column_2802 Column_2803 Column_2804 Column_2805 Column_2806 Column_2807 Column_2808 Column_2809 Column_2810 Column_2811 Column_2812 Column_2813 Column_2814 Column_2815 Column_2816 Column_2817 Column_2818 Column_2819 Column_2820 Column_2821 Column_2822 Column_2823 Column_2824 Column_2825 Column_2826 Column_2827 Column_2828 Column_2829 Column_2830 Column_2831 Column_2832 Column_2833 Column_2834 Column_2835 Column_2836 Column_2837 Column_2838 Column_2839 Column_2840 Column_2841 Column_2842 Column_2843 Column_2844 Column_2845 Column_2846 Column_2847 Column_2848 Column_2849 Column_2850 Column_2851 Column_2852 Column_2853 Column_2854 Column_2855 Column_2856 Column_2857 Column_2858 Column_2859 Column_2860 Column_2861 Column_2862 Column_2863 Column_2864 Column_2865 Column_2866 Column_2867 Column_2868 Column_2869 Column_2870 Column_2871 Column_2872 Column_2873 Column_2874 Column_2875 Column_2876 Column_2877 Column_2878 Column_2879 Column_2880 Column_2881 Column_2882 Column_2883 Column_2884 Column_2885 Column_2886 Column_2887 Column_2888 Column_2889 Column_2890 Column_2891 Column_2892 Column_2893 Column_2894 Column_2895 Column_2896 Column_2897 Column_2898 Column_2899 Column_2900 Column_2901 Column_2902 Column_2903 Column_2904 Column_2905 Column_2906 Column_2907 Column_2908 Column_2909 Column_2910 Column_2911 Column_2912 Column_2913 Column_2914 Column_2915 Column_2916 Column_2917 Column_2918 Column_2919 Column_2920 Column_2921 Column_2922 Column_2923 Column_2924 Column_2925 Column_2926 Column_2927 Column_2928 Column_2929 Column_2930 Column_2931 Column_2932 Column_2933 Column_2934 Column_2935 Column_2936 Column_2937 Column_2938 Column_2939 Column_2940 Column_2941 Column_2942 Column_2943 Column_2944 Column_2945 Column_2946 Column_2947 Column_2948 Column_2949 Column_2950 Column_2951 Column_2952 Column_2953 Column_2954 Column_2955 Column_2956 Column_2957 Column_2958 Column_2959 Column_2960 Column_2961 Column_2962 Column_2963 Column_2964 Column_2965 Column_2966 Column_2967 Column_2968 Column_2969 Column_2970 Column_2971 Column_2972 Column_2973 Column_2974 Column_2975 Column_2976 Column_2977 Column_2978 Column_2979 Column_2980 Column_2981 Column_2982 Column_2983 Column_2984 Column_2985 Column_2986 Column_2987 Column_2988 Column_2989 Column_2990 Column_2991 Column_2992 Column_2993 Column_2994 Column_2995 Column_2996 Column_2997 Column_2998 Column_2999 Column_3000 Column_3001 Column_3002 Column_3003 Column_3004 Column_3005 Column_3006 Column_3007 Column_3008 Column_3009 Column_3010 Column_3011 Column_3012 Column_3013 Column_3014 Column_3015 Column_3016 Column_3017 Column_3018 Column_3019 Column_3020 Column_3021 Column_3022 Column_3023 Column_3024 Column_3025 Column_3026 Column_3027 Column_3028 Column_3029 Column_3030 Column_3031 Column_3032 Column_3033 Column_3034 Column_3035 Column_3036 Column_3037 Column_3038 Column_3039 Column_3040 Column_3041 Column_3042 Column_3043 Column_3044 Column_3045 Column_3046 Column_3047 Column_3048 Column_3049 Column_3050 Column_3051 Column_3052 Column_3053 Column_3054 Column_3055 Column_3056 Column_3057 Column_3058 Column_3059 Column_3060 Column_3061 Column_3062 Column_3063 Column_3064 Column_3065 Column_3066 Column_3067 Column_3068 Column_3069 Column_3070 Column_3071 Column_3072 Column_3073 Column_3074 Column_3075 Column_3076 Column_3077 Column_3078 Column_3079 Column_3080 Column_3081 Column_3082 Column_3083 Column_3084 Column_3085 Column_3086 Column_3087 Column_3088 Column_3089 Column_3090 Column_3091 Column_3092 Column_3093 Column_3094 Column_3095 Column_3096 Column_3097 Column_3098 Column_3099 Column_3100 Column_3101 Column_3102 Column_3103 Column_3104 Column_3105 Column_3106 Column_3107 Column_3108 Column_3109 Column_3110 Column_3111 Column_3112 Column_3113 Column_3114 Column_3115 Column_3116 Column_3117 Column_3118 Column_3119 Column_3120 Column_3121 Column_3122 Column_3123 Column_3124 Column_3125 Column_3126 Column_3127 Column_3128 Column_3129 Column_3130 Column_3131 Column_3132 Column_3133 Column_3134 Column_3135 Column_3136 Column_3137 Column_3138 Column_3139 Column_3140 Column_3141 Column_3142 Column_3143 Column_3144 Column_3145 Column_3146 Column_3147 Column_3148 Column_3149 Column_3150 Column_3151 Column_3152 Column_3153 Column_3154 Column_3155 Column_3156 Column_3157 Column_3158 Column_3159 Column_3160 Column_3161 Column_3162 Column_3163 Column_3164 Column_3165 Column_3166 Column_3167 Column_3168 Column_3169 Column_3170 Column_3171 Column_3172 Column_3173 Column_3174 Column_3175 Column_3176 Column_3177 Column_3178 Column_3179 Column_3180 Column_3181 Column_3182 Column_3183 Column_3184 Column_3185 Column_3186 Column_3187 Column_3188 Column_3189 Column_3190 Column_3191 Column_3192 Column_3193 Column_3194 Column_3195 Column_3196 Column_3197 Column_3198 Column_3199 Column_3200 Column_3201 Column_3202 Column_3203 Column_3204 Column_3205 Column_3206 Column_3207 Column_3208 Column_3209 Column_3210 Column_3211 Column_3212 Column_3213 Column_3214 Column_3215 Column_3216 Column_3217 Column_3218 Column_3219 Column_3220 Column_3221 Column_3222 Column_3223 Column_3224 Column_3225 Column_3226 Column_3227 Column_3228 Column_3229 Column_3230 Column_3231 Column_3232 Column_3233 Column_3234 Column_3235 Column_3236 Column_3237 Column_3238 Column_3239 Column_3240 Column_3241 Column_3242 Column_3243 Column_3244 Column_3245 Column_3246 Column_3247 Column_3248 Column_3249 Column_3250 Column_3251 Column_3252 Column_3253 Column_3254 Column_3255 Column_3256 Column_3257 Column_3258 Column_3259 Column_3260 Column_3261 Column_3262 Column_3263 Column_3264 Column_3265 Column_3266 Column_3267 Column_3268 Column_3269 Column_3270 Column_3271 Column_3272 Column_3273 Column_3274 Column_3275 Column_3276 Column_3277 Column_3278 Column_3279 Column_3280 Column_3281 Column_3282 Column_3283 Column_3284 Column_3285 Column_3286 Column_3287 Column_3288 Column_3289 Column_3290 Column_3291 Column_3292 Column_3293 Column_3294 Column_3295 Column_3296 Column_3297 Column_3298 Column_3299 Column_3300 Column_3301 Column_3302 Column_3303 Column_3304 Column_3305 Column_3306 Column_3307 Column_3308 Column_3309 Column_3310 Column_3311 Column_3312 Column_3313 Column_3314 Column_3315 Column_3316 Column_3317 Column_3318 Column_3319 Column_3320 Column_3321 Column_3322 Column_3323 Column_3324 Column_3325 Column_3326 Column_3327 Column_3328 Column_3329 Column_3330 Column_3331 Column_3332 Column_3333 Column_3334 Column_3335 Column_3336 Column_3337 Column_3338 Column_3339 Column_3340 Column_3341 Column_3342 Column_3343 Column_3344 Column_3345 Column_3346 Column_3347 Column_3348 Column_3349 Column_3350 Column_3351 Column_3352 Column_3353 Column_3354 Column_3355 Column_3356 Column_3357 Column_3358 Column_3359 Column_3360 Column_3361 Column_3362 Column_3363 Column_3364 Column_3365 Column_3366 Column_3367 Column_3368 Column_3369 Column_3370 Column_3371 Column_3372 Column_3373 Column_3374 Column_3375 Column_3376 Column_3377 Column_3378 Column_3379 Column_3380 Column_3381 Column_3382 Column_3383 Column_3384 Column_3385 Column_3386 Column_3387 Column_3388 Column_3389 Column_3390 Column_3391 Column_3392 Column_3393 Column_3394 Column_3395 Column_3396 Column_3397 Column_3398 Column_3399 Column_3400 Column_3401 Column_3402 Column_3403 Column_3404 Column_3405 Column_3406 Column_3407 Column_3408 Column_3409 Column_3410 Column_3411 Column_3412 Column_3413 Column_3414 Column_3415 Column_3416 Column_3417 Column_3418 Column_3419
feature_infos=[-9.2233720368547758e+18:15] [-9.2233720368547758e+18:180] [-9.2233720368547758e+18:17] [0:27] [131:179] [0:20] [0:32] [132:180] [0:16] [0:49] [116:180] [0:17] [0:62] [103:180] [0:16] [3:76] [86:175] [1:21] [10:90] [70:165] [4:28] [15:100] [58:153] [9:36] [20:110] [45:140] [18:51] [28:125] [28:96] [24:80] [4:60] [2:33] [94:172] [4:42] [87:169] [5:55] [4:48] [98:172] [3:36] [0:51] [106:179] [0:28] [0:61] [103:180] [0:19] [1:78] [78:177] [0:31] [1:85] [67:177] [1:40] [1:92] [53:176] [1:60] [1:17] [107:175] [3:59] [0:21] [124:180] [0:37] [0:39] [111:180] [0:35] [0:51] [100:180] [0:32] [4:62] [79:171] [3:41] [12:77] [59:151] [15:55] [17:86] [47:126] [30:69] [22:97] [34:94] [40:88] [29:111] [18:52] [41:116] [7:49] [1:13] [120:171] [5:29] [34:94] [75:123] [5:38] [64:159] [14:85] [1:40] [82:177] [1:63] [0:51] [97:180] [0:37] [0:64] [71:178] [1:63] [3:71] [54:164] [12:79] [3:78] [36:94] [57:120] [-9.2233720368547758e+18:5] [153:180] [-9.2233720368547758e+18:21] [0:22] [123:179] [0:36] [0:38] [109:179] [0:36] [2:50] [85:172] [5:49] [8:64] [61:146] [25:66] [14:73] [48:102] [49:86] [18:84] [33:65] [52:113] [26:98] [14:34] [54:135] [3:34] [0:8] [138:176] [0:16] [0:35] [129:179] [3:20] [48:103] [71:118] [0:23] [78:180] [0:79] [0:35] [103:180] [0:43] [0:51] [70:177] [2:78] [0:58] [-9.2233720368547758e+18:106] [-9.2233720368547758e+18:108] [0:65] [0:51] [73:179] [0:18] [110:180] [0:54] [0:34] [102:180] [0:48] [7:46] [75:146] [24:67] [13:61] [52:98] [57:86] [18:70] [40:66] [61:109] [23:81] [23:46] [63:126] [27:93] [10:27] [63:138] [4:31] [0:5] [144:174] [0:16] [0:22] [142:179] [3:17] [8:42] [120:167] [3:19] [50:100] [75:111] [0:32] [92:180] [0:62] [1:46] [51:106] [67:105] [3:53] [14:54] [79:162] [0:60] [0:39] [86:178] [0:18] [106:180] [0:58] [7:32] [68:98] [70:90] [11:46] [33:67] [79:128] [15:55] [19:50] [81:143] [16:66] [9:37] [81:153] [20:81] [5:21] [78:153] [-9.2233720368547758e+18:27] [-9.2233720368547758e+18:2] [150:180] [-9.2233720368547758e+18:17] [0:13] [149:180] [-9.2233720368547758e+18:12] [0:21] [146:180] [0:8] [0:33] [139:180] [0:16] [81:178] [0:87] [0:34] [0:49] [98:179] [1:41] [1:37] [103:177] [0:48] [0:27] [107:179] [0:18] [5:60] [106:173] [1:31] [1:51] [103:176] [0:40] [0:39] [103:178] [0:51] [0:30] [101:179] [4:66] [0:17] [97:175] [0:26] [0:1] [152:180] [0:33] [0:16] [131:179] [0:24] [0:19] [136:180] [0:18] [0:26] [136:180] [0:2] [0:30] [147:180] [0:20] [0:31] [129:180] [0:27] [0:24] [127:180] [0:35] [0:19] [126:180] [0:15] [1:50] [118:177] [1:25] [1:38] [119:176] [2:35] [1:31] [116:175] [1:51] [0:18] [113:177] [0:24] [0:3] [151:180] [0:50] [0:26] [105:180] [0:41] [0:36] [-9.2233720368547758e+18:179] [0:36] [2:53] [97:176] [1:18] [82:150] [24:83] [0:23] [0:54] [111:180] [0:28] [0:34] [116:179] [0:37] [0:27] [114:180] [0:10] [2:39] [131:176] [1:21] [1:32] [128:177] [2:36] [1:20] [124:176] [-9.2233720368547758e+18:34] [0:6] [-9.2233720368547758e+18:180] [0:63] [0:37] [84:179] [2:54] [7:54] [80:170] [6:49] [57:82] [71:106] [3:31] [96:170] [6:61] [8:28] [54:90] [71:114] [2:27] [7:61] [90:169] [0:37] [0:43] [99:179] [0:11] [0:34] [135:180] [3:26] [1:21] [131:174] [0:44] [0:9] [129:179] [5:73] [15:55] [69:158] [7:64] [49:84] [63:108] [10:59] [63:130] [39:67] [3:40] [100:174] [2:46] [14:35] [76:117] [41:71] [9:35] [48:90] [62:118] [5:41] [8:61] [81:165] [1:15] [2:23] [140:175] [5:55] [0:16] [113:173] [10:84] [40:90] [53:108] [12:75] [55:131] [33:65] [12:70] [67:146] [18:49] [1:51] [99:177] [0:33] [18:43] [87:139] [20:49] [16:43] [70:121] [32:72] [12:49] [40:91] [53:121] [14:69] [4:39] [91:161] [17:99] [45:141] [20:51] [16:89] [59:151] [12:36] [16:84] [68:153] [8:29] [6:65] [96:172] [1:19] [20:55] [100:149] [8:27] [20:54] [95:144] [13:37] [20:59] [76:131] [21:56] [0:33] [139:180] [0:9] [0:26] [-9.2233720368547758e+18:180] [0:5] [0:22] [154:180] [0:3] [0:25] [152:180] [0:1] [0:23] [154:180] [-9.2233720368547758e+18:2] [-9.2233720368547758e+18:29] [-9.2233720368547758e+18:180] [-9.2233720368547758e+18:4] [-9.2233720368547758e+18:38] [-9.2233720368547758e+18:180] [-9.2233720368547758e+18:7] [0:9] [144:179] [0:26] [0:14] [146:180] [0:20] [0:33] [130:179] [0:18] [0:52] [92:179] [0:38] [-9.2233720368547758e+18:59] [-9.2233720368547758e+18:180] [-9.2233720368547758e+18:59] [-9.2233720368547758e+18:66] [-9.2233720368547758e+18:134] [-9.2233720368547758e+18:170] [0:6] [151:180] [0:22] [0:23] [135:180] [0:24] [0:42] [84:180] [-9.2233720368547758e+18:56] [0:49] [33:129] [47:146] [0:56] [0:54] [77:180] [0:18] [132:179] [0:34] [-9.2233720368547758e+18:37] [-9.2233720368547758e+18:175] [-9.2233720368547758e+18:175] [0:44] [0:58] [83:180] [0:52] [0:41] [93:180] [0:20] [0:44] [125:180] [0:27] [0:27] [125:180] [0:34] [0:20] [125:180] [0:7] [0:27] [144:180] [0:15] [0:24] [140:180] [0:9] [0:30] [140:180] [1:25] [117:176] [1:40] [0:24] [135:180] [0:22] [0:41] [121:180] [0:19] [0:54] [110:180] [0:17] [7:71] [90:170] [2:21] [17:90] [71:151] [9:27] [28:101] [59:126] [16:34] [43:114] [46:95] [17:51] [85:130] [29:52] [17:53] [126:179] [0:24] [0:29] [12:69] [46:94] [56:90] [8:58] [77:161] [10:49] [0:51] [94:179] [0:34] [0:54] [107:180] [0:19] [2:72] [81:175] [1:32] [7:85] [64:161] [11:47] [8:97] [48:95] [23:102] [0:8] [153:180] [0:18] [0:21] [140:180] [0:19] [0:33] [127:179] [0:21] [2:50] [103:174] [2:30] [12:69] [81:147] [20:39] [23:80] [68:102] [28:62] [37:93] [49:69] [28:93] [81:110] [21:48] [29:70] [106:175] [1:27] [3:49] [9:46] [13:45] [95:156] [5:35] [67:106] [64:94] [0:30] [98:180] [0:50] [0:34] [121:179] [0:27] [0:55] [90:179] [0:47] [0:66] [-9.2233720368547758e+18:106] [-9.2233720368547758e+18:95] [0:79] [1:64] [39:178] [0:19] [124:180] [0:38] [0:34] [116:180] [0:34] [10:51] [91:145] [23:48] [19:69] [68:97] [38:71] [30:80] [50:68] [38:98] [44:94] [30:55] [37:105] [89:110] [14:39] [36:69] [107:179] [0:21] [0:54] [11:48] [7:29] [107:160] [10:36] [22:49] [97:146] [5:31] [66:101] [72:94] [0:34] [104:180] [0:46] [2:54] [67:103] [48:92] [7:65] [15:64] [52:157] [7:78] [5:49] [52:166] [0:16] [121:180] [0:43] [9:35] [83:99] [55:78] [18:52] [46:75] [60:114] [30:63] [30:62] [59:119] [43:76] [20:50] [57:115] [80:98] [11:34] [52:78] [92:180] [0:19] [0:73] [1:34] [0:13] [133:178] [1:23] [1:21] [137:176] [0:13] [2:34] [134:177] [0:17] [93:178] [1:71] [1:43] [5:61] [75:173] [0:54] [0:49] [76:179] [0:68] [0:38] [73:179] [3:22] [15:73] [88:161] [10:40] [15:62] [84:148] [21:51] [14:52] [81:142] [36:64] [13:42] [76:129] [68:97] [8:31] [67:96] [81:179] [0:15] [0:87] [0:30] [0:10] [142:180] [0:19] [0:15] [144:180] [0:11] [0:18] [150:180] [-9.2233720368547758e+18:2] [-9.2233720368547758e+18:29] [-9.2233720368547758e+18:180] [0:31] [0:40] [109:179] [1:43] [0:34] [103:177] [3:56] [1:28] [95:175] [7:18] [17:65] [98:154] [15:32] [17:54] [96:146] [27:47] [17:47] [91:133] [56:85] [11:36] [79:101] [65:171] [1:19] [6:99] [0:33] [-9.2233720368547758e+18:8] [-9.2233720368547758e+18:180] [0:32] [0:18] [129:180] [0:32] [1:34] [115:178] [2:21] [64:136] [35:99] [0:19] [0:42] [122:179] [-9.2233720368547758e+18:20] [-9.2233720368547758e+18:28] [-9.2233720368547758e+18:180] [0:35] [0:28] [118:178] [7:15] [25:59] [109:146] [19:32] [20:52] [103:134] [38:76] [14:40] [84:109] [47:162] [4:23] [12:117] [-9.2233720368547758e+18:49] [-9.2233720368547758e+18:14] [-9.2233720368547758e+18:180] [1:49] [2:31] [104:176] [9:50] [38:68] [87:110] [10:39] [74:142] [22:77] [8:27] [35:73] [84:135] [0:27] [0:34] [119:180] [-9.2233720368547758e+18:29] [0:22] [135:180] [11:17] [24:56] [108:141] [27:65] [20:45] [88:116] [36:151] [8:31] [19:128] [4:61] [5:23] [101:170] [12:61] [28:61] [88:115] [20:61] [42:114] [44:86] [20:50] [77:137] [19:62] [19:40] [53:103] [49:98] [7:35] [25:62] [86:144] [-9.2233720368547758e+18:36] [0:27] [117:180] [14:52] [31:58] [90:127] [23:138] [12:43] [25:144] [17:74] [17:49] [86:125] [26:73] [31:109] [44:89] [34:74] [44:118] [27:68] [36:63] [74:125] [15:49] [32:55] [62:107] [30:75] [19:49] [44:94] [49:106] [6:50] [18:49] [85:154] [7:87] [7:67] [39:163] [55:91] [20:72] [37:89] [66:91] [34:79] [22:63] [71:92] [44:82] [15:49] [68:96] [66:94] [9:35] [48:95] [59:85] [15:53] [37:93] [53:84] [21:73] [23:91] [36:74] [35:105] [62:163] [9:61] [7:64] [75:165] [9:73] [4:40] [81:173] [5:75] [1:30] [81:180] [0:86] [0:17] [64:180] [0:94] [0:31] [52:175] [3:103] [1:40] [39:174] [3:113] [2:63] [0:13] [143:180] [0:23] [1:21] [144:178] [0:14] [0:29] [142:179] [0:10] [0:40] [-9.2233720368547758e+18:180] [0:19] [0:51] [106:180] [0:31] [0:66] [-9.2233720368547758e+18:155] [-9.2233720368547758e+18:156] [0:10] [148:179] [0:21] [0:18] [146:180] [0:16] [0:40] [109:180] [0:34] [1:51] [33:146] [32:145] [1:66] [1:73] [43:177] [0:12] [152:180] [0:18] [0:41] [-9.2233720368547758e+18:171] [-9.2233720368547758e+18:171] [0:53] [2:72] [55:177] [1:66] [1:55] [59:176] [0:30] [0:45] [105:180] [1:42] [1:37] [101:177] [3:55] [1:30] [94:174] [0:13] [1:48] [119:177] [2:29] [1:42] [112:176] [0:17] [0:50] [115:178] [6:24] [133:167] [6:24] [0:19] [152:180] [0:9] [0:20] [154:180] [0:5] [0:39] [131:179] [0:9] [12:58] [110:158] [8:16] [39:71] [93:119] [9:37] [64:87] [58:101] [10:41] [84:132] [31:83] [12:23] [97:172] [5:66] [2:21] [64:94] [17:80] [31:81] [12:48] [90:121] [25:75] [-9.2233720368547758e+18:29] [-9.2233720368547758e+18:180] [-9.2233720368547758e+18:18] [-9.2233720368547758e+18:24] [148:180] [0:7] [-9.2233720368547758e+18:53] [-9.2233720368547758e+18:179] [-9.2233720368547758e+18:18] [0:67] [-9.2233720368547758e+18:122] [-9.2233720368547758e+18:81] [62:92] [12:92] [15:82] [0:18] [141:180] [0:22] [0:31] [131:180] [0:19] [14:51] [105:144] [16:33] [30:70] [86:100] [20:60] [56:82] [50:82] [20:72] [82:97] [30:68] [19:54] [104:148] [14:53] [16:30] [115:180] [0:41] [0:28] [81:105] [8:46] [42:80] [24:64] [22:67] [52:132] [8:47] [78:99] [43:92] [-9.2233720368547758e+18:35] [-9.2233720368547758e+18:180] [-9.2233720368547758e+18:28] [3:62] [80:107] [28:88] [17:77] [15:74] [29:146] [78:110] [5:60] [28:81] [0:15] [135:180] [0:30] [14:39] [86:110] [37:74] [29:59] [47:92] [39:102] [53:72] [31:79] [40:92] [70:98] [21:66] [37:64] [89:148] [11:50] [20:51] [102:180] [0:36] [0:49] [68:107] [5:30] [66:91] [22:49] [10:38] [93:146] [8:30] [10:50] [105:160] [0:18] [107:175] [3:57] [0:53] [0:74] [56:179] [17:69] [7:59] [54:155] [66:109] [3:49] [49:95] [7:27] [27:89] [69:145] [22:48] [24:78] [66:127] [43:68] [19:68] [62:108] [58:98] [15:59] [57:91] [78:146] [9:46] [23:69] [90:180] [0:31] [0:62] [53:107] [3:20] [67:110] [12:44] [3:21] [121:164] [0:19] [0:17] [145:179] [0:5] [2:32] [144:177] [1:42] [1:49] [90:176] [7:58] [3:43] [79:169] [56:108] [2:38] [65:112] [14:23] [32:83] [79:131] [25:46] [27:73] [76:113] [38:81] [22:65] [69:95] [56:133] [16:54] [30:76] [69:167] [5:38] [7:76] [37:87] [5:22] [85:136] [0:25] [0:20] [133:180] [0:29] [0:20] [133:180] [4:25] [45:131] [36:119] [0:17] [0:35] [130:180] [0:33] [0:42] [107:179] [37:95] [3:42] [80:124] [10:26] [37:79] [86:117] [23:65] [32:71] [79:99] [37:116] [26:61] [36:86] [49:149] [15:50] [14:94] [18:67] [3:26] [96:157] [-9.2233720368547758e+18:34] [0:14] [135:180] [11:50] [19:57] [99:140] [19:46] [53:123] [28:96] [5:31] [17:57] [95:155] [-9.2233720368547758e+18:14] [-9.2233720368547758e+18:26] [-9.2233720368547758e+18:180] [22:79] [5:40] [94:141] [12:39] [51:78] [84:107] [26:90] [44:73] [42:95] [37:123] [29:64] [20:106] [6:41] [1:26] [117:171] [9:47] [10:35] [113:158] [27:63] [24:88] [51:118] [39:66] [55:104] [22:82] [17:53] [32:78] [51:124] [2:39] [6:35] [105:169] [10:53] [6:31] [119:159] [13:52] [56:93] [45:110] [24:90] [30:80] [26:121] [0:11] [0:3] [166:180] [25:69] [13:58] [66:131] [45:87] [25:67] [34:99] [54:97] [52:88] [16:69] [29:91] [40:67] [32:102] [15:77] [25:55] [60:137] [-9.2233720368547758e+18:15] [-9.2233720368547758e+18:5] [-9.2233720368547758e+18:180] [10:46] [25:107] [39:140] [13:51] [3:28] [109:159] [44:116] [15:39] [41:111] [62:134] [23:47] [21:83] [74:145] [23:66] [10:52] [46:143] [19:64] [16:83] [29:129] [17:63] [32:105] [14:48] [4:53] [104:146] [24:90] [6:35] [77:131] [54:156] [6:46] [16:89] [72:174] [2:49] [3:65] [87:180] [0:61] [0:36] [60:176] [1:72] [1:63] [43:162] [4:81] [12:79] [26:90] [4:91] [50:127] [24:78] [81:103] [16:66] [43:96] [74:98] [8:47] [49:105] [69:112] [4:24] [24:93] [65:149] [5:44] [10:79] [56:166] [2:72] [0:12] [-9.2233720368547758e+18:180] [-9.2233720368547758e+18:180] [13:26] [108:150] [15:49] [10:42] [121:166] [3:24] [-9.2233720368547758e+18:43] [-9.2233720368547758e+18:180] [-9.2233720368547758e+18:56] [0:43] [6:176] [2:173] [23:77] [10:117] [18:135] [0:16] [147:180] [0:18] [0:44] [-9.2233720368547758e+18:169] [-9.2233720368547758e+18:163] [1:60] [0:98] [33:178] [41:95] [5:77] [34:114] [0:41] [0:55] [86:178] [4:57] [2:49] [77:173] [53:107] [2:43] [66:113] [13:29] [12:68] [93:153] [28:106] [5:62] [67:104] [15:92] [12:74] [75:111] [0:39] [119:179] [0:25] [2:55] [112:175] [1:17] [28:78] [88:131] [10:26] [54:102] [64:87] [10:49] [93:118] [34:72] [9:37] [110:154] [15:56] [8:17] [129:179] [0:41] [0:11] [-9.2233720368547758e+18:180] [-9.2233720368547758e+18:24] [-9.2233720368547758e+18:7] [-9.2233720368547758e+18:180] [-9.2233720368547758e+18:30] [-9.2233720368547758e+18:19] [91:120] [9:50] [24:70] [15:84] [61:89] [29:94] [4:61] [102:172] [2:24] [6:92] [64:89] [15:100] [-9.2233720368547758e+18:125] [0:65] [-9.2233720368547758e+18:73] [116:180] [0:50] [0:22] [0:20] [132:177] [1:30] [20:48] [79:111] [28:73] [46:71] [39:94] [28:94] [69:102] [23:82] [28:57] [83:145] [14:69] [20:44] [102:172] [4:51] [3:32] [118:179] [0:36] [0:27] [103:179] [0:30] [0:49] [67:110] [5:38] [61:92] [12:47] [8:50] [90:158] [2:26] [104:168] [8:55] [2:67] [1:77] [43:176] [-9.2233720368547758e+18:117] [0:61] [-9.2233720368547758e+18:102] [91:177] [0:49] [1:51] [11:34] [23:95] [60:141] [35:63] [19:84] [55:118] [52:99] [15:74] [49:91] [67:140] [11:64] [27:71] [88:168] [5:50] [6:51] [103:180] [0:35] [0:45] [88:179] [0:23] [0:70] [50:108] [3:22] [67:114] [0:32] [0:17] [133:179] [0:7] [1:34] [137:178] [4:54] [1:51] [76:173] [-9.2233720368547758e+18:112] [0:46] [-9.2233720368547758e+18:120] [75:179] [0:41] [0:72] [15:34] [31:92] [68:123] [28:80] [26:81] [62:96] [43:123] [20:73] [34:75] [63:151] [14:62] [13:59] [78:171] [5:47] [3:60] [65:156] [6:27] [15:90] [28:87] [2:24] [83:144] [-9.2233720368547758e+18:33] [-9.2233720368547758e+18:13] [-9.2233720368547758e+18:180] [6:31] [36:132] [31:127] [0:30] [0:43] [116:180] [-9.2233720368547758e+18:95] [0:50] [-9.2233720368547758e+18:135] [50:172] [2:50] [5:90] [12:52] [47:91] [73:97] [25:97] [40:83] [41:82] [41:125] [35:72] [19:74] [54:145] [24:62] [9:78] [46:128] [12:40] [29:113] [8:59] [0:28] [107:170] [11:57] [9:46] [96:154] [30:61] [42:115] [23:104] [3:54] [8:49] [82:167] [-9.2233720368547758e+18:67] [-9.2233720368547758e+18:37] [-9.2233720368547758e+18:161] [28:146] [13:52] [19:114] [12:45] [71:94] [46:90] [28:73] [64:89] [24:83] [41:99] [43:81] [16:90] [32:85] [12:56] [54:128] [-9.2233720368547758e+18:11] [-9.2233720368547758e+18:5] [-9.2233720368547758e+18:180] [30:88] [13:53] [50:135] [45:98] [43:87] [18:90] [15:100] [21:51] [39:137] [-9.2233720368547758e+18:15] [-9.2233720368547758e+18:5] [-9.2233720368547758e+18:180] [15:93] [22:51] [44:137] [14:33] [66:124] [27:98] [27:63] [41:109] [22:105] [15:53] [10:45] [96:152] [9:45] [1:19] [118:169] [44:127] [13:38] [31:116] [60:140] [26:68] [12:77] [28:145] [14:49] [19:115] [-9.2233720368547758e+18:45] [0:35] [-9.2233720368547758e+18:156] [2:48] [7:45] [86:167] [9:31] [37:124] [35:124] [0:33] [0:11] [135:180] [26:73] [3:22] [96:149] [58:155] [6:28] [17:99] [82:167] [6:49] [5:60] [45:173] [1:51] [4:98] [-9.2233720368547758e+18:76] [-9.2233720368547758e+18:50] [-9.2233720368547758e+18:130] [-9.2233720368547758e+18:20] [0:39] [-9.2233720368547758e+18:180] [0:30] [0:17] [131:180] [41:102] [4:25] [72:122] [71:178] [0:29] [0:81] [100:180] [0:43] [0:42] [64:175] [0:57] [3:78] [-9.2233720368547758e+18:104] [-9.2233720368547758e+18:66] [-9.2233720368547758e+18:110] [0:48] [0:76] [66:179] [32:84] [13:65] [74:99] [63:171] [4:60] [4:63] [82:178] [1:72] [0:28] [55:168] [5:92] [5:55] [-9.2233720368547758e+18:87] [-9.2233720368547758e+18:116] [-9.2233720368547758e+18:112] [-9.2233720368547758e+18:49] [-9.2233720368547758e+18:174] [-9.2233720368547758e+18:160] [29:98] [69:99] [11:62] [44:107] [67:118] [4:27] [14:100] [46:164] [1:65] [-9.2233720368547758e+18:18] [-9.2233720368547758e+18:180] [-9.2233720368547758e+18:180] [13:93] [56:164] [2:77] [0:29] [134:179] [0:20] [-9.2233720368547758e+18:54] [-9.2233720368547758e+18:179] [-9.2233720368547758e+18:173] [-9.2233720368547758e+18:97] [0:112] [-9.2233720368547758e+18:138] [52:169] [4:90] [5:60] [3:51] [1:58] [73:174] [-9.2233720368547758e+18:112] [0:54] [-9.2233720368547758e+18:124] [68:179] [0:49] [0:70] [-9.2233720368547758e+18:108] [0:83] [-9.2233720368547758e+18:103] [31:176] [1:75] [1:74] [-9.2233720368547758e+18:88] [-9.2233720368547758e+18:100] [0:82] [-9.2233720368547758e+18:14] [-9.2233720368547758e+18:180] [-9.2233720368547758e+18:14] [29:59] [81:130] [17:51] [49:98] [48:112] [16:44] [62:129] [32:99] [14:38] [75:150] [21:86] [8:30] [91:169] [7:69] [2:23] [106:180] [0:55] [0:21] [99:178] [1:50] [0:35] [78:165] [7:59] [7:52] [50:107] [13:71] [53:93] [1:25] [120:177] [1:33] [45:99] [6:94] [27:116] [69:162] [8:78] [8:53] [86:172] [4:67] [2:35] [20:50] [29:106] [49:118] [39:94] [25:95] [39:91] [51:128] [21:85] [26:73] [64:148] [16:75] [14:57] [84:167] [7:63] [5:43] [99:180] [0:48] [0:40] [91:177] [1:37] [1:54] [68:162] [5:36] [11:79] [38:105] [6:30] [67:121] [1:12] [8:45] [123:169] [37:97] [2:61] [59:136] [59:161] [5:57] [13:76] [76:171] [3:53] [4:58] [15:53] [53:110] [51:97] [27:93] [48:98] [36:78] [40:113] [42:89] [23:62] [57:129] [36:79] [13:52] [70:144] [25:65] [8:54] [67:133] [24:52] [19:78] [44:117] [16:50] [33:112] [15:62] [2:37] [99:159] [9:46] [23:110] [39:142] [15:58] [3:57] [98:160] [35:128] [22:64] [28:102] [50:138] [24:63] [16:78] [11:40] [80:105] [40:81] [23:60] [77:98] [28:69] [36:76] [70:91] [19:67] [47:95] [53:84] [14:73] [45:86] [25:74] [31:100] [26:71] [13:67] [56:136] [0:11] [-9.2233720368547758e+18:5] [-9.2233720368547758e+18:180] [28:91] [28:85] [30:119] [-9.2233720368547758e+18:15] [-9.2233720368547758e+18:5] [-9.2233720368547758e+18:180] [15:75] [23:59] [54:135] [28:85] [39:71] [30:102] [11:22] [89:125] [35:76] [24:42] [78:120] [25:76] [35:64] [53:107] [21:84] [33:59] [24:93] [53:116] [12:45] [9:37] [111:155] [8:38] [1:20] [126:170] [41:125] [24:69] [25:104] [10:42] [2:30] [123:160] [3:35] [9:37] [107:166] [16:48] [33:84] [55:125] [12:22] [75:136] [27:90] [20:44] [50:121] [27:100] [13:46] [19:57] [100:138] [0:31] [0:12] [139:180] [21:59] [3:23] [109:155] [54:145] [13:54] [19:92] [22:65] [2:38] [102:141] [-9.2233720368547758e+18:15] [-9.2233720368547758e+18:25] [-9.2233720368547758e+18:180] [5:29] [16:57] [97:155] [7:25] [44:125] [40:118] [0:30] [0:20] [131:180] [0:24] [0:16] [139:179] [33:78] [4:21] [94:137] [74:164] [5:41] [10:79] [34:83] [2:42] [87:122] [0:28] [0:41] [112:179] [-9.2233720368547758e+18:13] [0:32] [136:180] [0:18] [0:17] [145:180] [6:39] [2:20] [122:171] [45:98] [3:22] [76:113] [90:180] [0:38] [0:62] [46:103] [1:51] [67:106] [13:52] [3:59] [75:163] [0:37] [0:70] [79:179] [11:24] [14:51] [108:153] [42:89] [8:46] [80:101] [81:174] [2:55] [2:48] [43:90] [3:80] [34:106] [1:55] [0:103] [32:177] [-9.2233720368547758e+18:40] [-9.2233720368547758e+18:165] [-9.2233720368547758e+18:145] [24:76] [13:67] [80:111] [57:159] [13:83] [7:46] [25:72] [4:118] [18:122] [0:40] [9:178] [1:167] [0:33] [86:180] [0:64] [29:103] [68:129] [8:40] [-9.2233720368547758e+18:18] [-9.2233720368547758e+18:180] [-9.2233720368547758e+18:180] [12:72] [56:163] [2:86] [26:82] [73:147] [5:47] [24:95] [3:77] [55:149] [48:159] [7:74] [13:77] [65:169] [5:68] [5:56] [14:77] [78:110] [6:70] [28:90] [76:102] [3:61] [10:25] [93:158] [11:69] [30:94] [30:115] [30:85] [48:129] [26:104] [17:48] [61:145] [22:94] [9:35] [74:157] [17:84] [5:27] [89:170] [7:73] [1:23] [106:180] [0:57] [0:21] [111:178] [0:46] [0:25] [103:171] [5:47] [2:33] [91:167] [6:42] [5:51] [4:35] [9:56] [97:164] [66:170] [4:72] [5:55] [80:168] [6:67] [4:36] [91:172] [5:63] [2:27] [16:46] [84:130] [26:54] [29:62] [84:117] [17:43] [40:72] [84:110] [13:37] [53:81] [79:100] [9:34] [67:96] [69:88] [7:35] [74:92] [48:84] [14:48] [67:90] [38:85] [19:66] [56:86] [26:75] [37:90] [6:86] [6:64] [43:166] [27:102] [33:81] [35:103] [39:91] [51:89] [20:70] [49:90] [59:88] [14:52] [10:19] [109:141] [22:55] [20:33] [105:135] [19:49] [28:48] [93:129] [15:48] [33:65] [75:123] [13:53] [35:66] [47:119] [25:70] [28:64] [33:112] [39:90] [20:64] [18:47] [92:125] [23:124] [11:41] [34:144] [6:67] [18:45] [82:152] [18:56] [45:97] [46:100] [28:55] [62:109] [28:75] [8:14] [110:145] [25:56] [13:30] [99:145] [19:57] [18:49] [74:137] [18:65] [19:55] [43:113] [46:86] [12:53] [27:60] [91:114] [4:53] [4:26] [108:171] [37:139] [7:30] [29:129] [-9.2233720368547758e+18:49] [-9.2233720368547758e+18:26] [-9.2233720368547758e+18:179] [7:38] [29:57] [93:141] [18:38] [54:102] [52:95] [4:18] [95:158] [16:71] [9:35] [69:145] [22:80] [9:44] [37:67] [89:109] [2:43] [5:36] [109:171] [-9.2233720368547758e+18:43] [-9.2233720368547758e+18:16] [121:180] [49:149] [5:23] [23:117] [-9.2233720368547758e+18:38] [-9.2233720368547758e+18:21] [-9.2233720368547758e+18:180] [0:27] [0:32] [122:180] [8:27] [36:67] [90:135] [5:20] [63:138] [34:99] [0:32] [0:36] [114:179] [-9.2233720368547758e+18:31] [-9.2233720368547758e+18:20] [-9.2233720368547758e+18:179] [0:30] [0:10] [138:180] [62:161] [2:19] [15:104] [0:29] [0:27] [124:180] [-9.2233720368547758e+18:19] [-9.2233720368547758e+18:26] [-9.2233720368547758e+18:180] [0:21] [0:35] [123:180] [-9.2233720368547758e+18:14] [0:22] [143:180] [-9.2233720368547758e+18:20] [-9.2233720368547758e+18:13] [-9.2233720368547758e+18:180] [-9.2233720368547758e+18:31] [-9.2233720368547758e+18:9] [-9.2233720368547758e+18:180] [80:177] [0:18] [2:86] [0:49] [0:37] [96:180] [0:36] [0:46] [99:178] [0:26] [0:56] [100:179] [0:9] [0:21] [150:179] [0:22] [0:15] [144:178] [83:170] [1:26] [8:73] [0:59] [0:60] [62:179] [0:47] [1:77] [57:177] [0:36] [-9.2233720368547758e+18:170] [-9.2233720368547758e+18:120] [0:14] [0:22] [144:179] [78:163] [4:37] [12:76] [1:57] [1:77] [46:176] [0:45] [52:154] [24:122] [0:35] [114:180] [0:39] [68:158] [7:58] [13:68] [0:55] [-9.2233720368547758e+18:161] [-9.2233720368547758e+18:164] [0:43] [110:180] [0:36] [0:34] [128:180] [0:18] [39:165] [7:102] [6:56] [55:163] [11:99] [5:35] [66:167] [9:93] [2:26] [1:19] [121:176] [2:45] [1:30] [116:176] [1:40] [0:13] [121:178] [0:47] [0:13] [146:180] [0:19] [3:23] [140:174] [2:17] [3:32] [132:175] [1:17] [0:44] [119:179] [0:17] [6:60] [104:172] [1:19] [9:71] [83:167] [2:29] [9:74] [72:166] [4:35] [14:79] [59:152] [12:57] [12:63] [6:37] [86:155] [20:53] [74:134] [23:55] [20:52] [92:145] [10:35] [18:55] [98:155] [5:26] [0:13] [136:180] [0:30] [2:23] [131:174] [2:29] [1:35] [120:177] [1:30] [3:50] [101:172] [3:36] [14:60] [72:150] [13:51] [12:63] [59:139] [24:68] [12:68] [39:96] [60:106] [10:55] [1:16] [108:167] [13:45] [39:90] [62:121] [16:42] [72:120] [36:69] [18:46] [88:134] [20:50] [0:10] [133:175] [3:37] [0:23] [123:179] [0:38] [2:39] [99:173] [4:47] [11:50] [65:128] [35:69] [8:53] [47:93] [69:107] [8:59] [16:58] [80:154] [1:45] [0:10] [123:178] [4:43] [7:61] [92:167] [11:33] [50:88] [70:115] [14:34] [78:117] [45:72] [0:14] [118:175] [3:52] [1:29] [92:172] [5:63] [7:41] [56:92] [72:106] [3:44] [12:57] [88:163] [3:52] [4:41] [94:172] [-9.2233720368547758e+18:37] [0:6] [135:180] [0:40] [0:41] [111:180] [3:27] [8:59] [99:168] [9:26] [54:89] [73:114] [2:17] [83:151] [24:82] [1:31] [4:53] [96:174] [0:34] [0:39] [106:179] [-9.2233720368547758e+18:41] [0:28] [110:180] [0:27] [0:4] [148:180] [0:36] [0:28] [126:179] [0:23] [-9.2233720368547758e+18:38] [120:180] [0:18] [0:56] [105:180] [0:15] [0:41] [123:180] [0:19] [0:29] [131:180] [0:25] [0:21] [135:180] [0:29] [0:2] [148:180] [0:30] [0:23] [127:180] [0:24] [0:31] [124:180] [0:19] [0:44] [119:180] [0:5] [0:18] [157:180] [0:11] [0:15] [153:180] [-9.2233720368547758e+18:23] [-9.2233720368547758e+18:2] [-9.2233720368547758e+18:180] [-9.2233720368547758e+18:41] [0:44] [96:180] [0:35] [0:62] [83:179] [0:30] [-9.2233720368547758e+18:175] [-9.2233720368547758e+18:136] [0:8] [0:21] [-9.2233720368547758e+18:180] [0:26] [0:4] [150:180] [0:44] [0:56] [79:180] [0:38] [51:145] [33:127] [0:33] [92:180] [0:57] [-9.2233720368547758e+18:31] [-9.2233720368547758e+18:8] [143:180] [0:49] [-9.2233720368547758e+18:180] [-9.2233720368547758e+18:172] [0:44] [-9.2233720368547758e+18:180] [0:55] [0:39] [102:180] [0:38] [-9.2233720368547758e+18:36] [-9.2233720368547758e+18:180] [-9.2233720368547758e+18:12] [-9.2233720368547758e+18:32] [144:180] [-9.2233720368547758e+18:6] [0:27] [150:180] [0:3] [-9.2233720368547758e+18:13] [-9.2233720368547758e+18:180] [-9.2233720368547758e+18:26] [-9.2233720368547758e+18:18] [143:180] [0:19] [-9.2233720368547758e+18:7] [147:180] [-9.2233720368547758e+18:26] [0:16] [146:180] [0:16] [0:26] [141:180] [0:13] [2:37] [131:176] [1:15] [1:51] [114:178] [0:18] [18:70] [87:148] [10:26] [19:80] [73:141] [19:38] [28:99] [51:102] [24:74] [119:164] [4:29] [8:33] [33:85] [51:96] [36:80] [25:60] [88:127] [23:40] [24:56] [103:141] [13:27] [0:10] [147:180] [0:21] [1:22] [136:176] [2:24] [1:39] [111:177] [1:29] [16:61] [81:132] [30:48] [14:71] [61:98] [39:90] [24:86] [22:65] [40:133] [113:159] [2:25] [13:46] [26:70] [20:66] [63:130] [19:49] [64:93] [52:92] [20:43] [90:124] [32:50] [0:13] [129:179] [0:38] [1:32] [103:176] [2:45] [10:53] [68:96] [50:90] [9:63] [18:67] [54:151] [18:78] [10:51] [54:151] [107:155] [2:21] [17:55] [18:65] [9:45] [86:151] [11:40] [20:63] [82:147] [13:34] [67:93] [60:93] [3:20] [95:156] [19:68] [4:43] [10:67] [69:165] [3:52] [3:53] [74:173] [12:68] [4:44] [71:162] [95:151] [1:18] [22:69] [9:60] [3:31] [102:167] [1:35] [1:41] [103:176] [4:27] [10:58] [93:165] [0:24] [0:58] [99:179] [0:34] [0:45] [101:179] [2:51] [0:39] [96:176] [80:147] [1:19] [26:84] [0:53] [0:26] [110:179] [0:31] [0:34] [114:179] [0:24] [0:47] [107:179] [0:11] [0:44] [125:179] [8:32] [4:43] [114:166] [58:143] [3:27] [27:98] [0:48] [0:33] [103:179] [0:36] [0:45] [110:180] [-9.2233720368547758e+18:36] [-9.2233720368547758e+18:172] [-9.2233720368547758e+18:149] [9:26] [10:54] [111:159] [48:144] [5:33] [23:103] [-9.2233720368547758e+18:46] [-9.2233720368547758e+18:50] [-9.2233720368547758e+18:180] [1:46] [29:155] [23:148] [0:45] [58:180] [0:76] [35:135] [11:53] [23:113] [0:52] [-9.2233720368547758e+18:178] [-9.2233720368547758e+18:171] [2:59] [45:175] [2:81] [0:58] [61:179] [0:60] [50:124] [28:86] [11:59] [68:135] [28:82] [6:38] [74:138] [30:83] [4:27] [5:26] [116:166] [7:38] [4:36] [119:172] [2:27] [-9.2233720368547758e+18:9] [-9.2233720368547758e+18:180] [-9.2233720368547758e+18:27] [-9.2233720368547758e+18:11] [-9.2233720368547758e+18:180] [-9.2233720368547758e+18:11] [1:20] [150:177] [0:9] [1:42] [126:177] [0:13] [22:72] [92:136] [13:27] [29:85] [72:98] [14:70] [77:105] [26:74] [14:59] [127:169] [5:38] [3:18] [78:105] [32:71] [23:53] [36:74] [74:98] [23:62] [27:55] [101:131] [16:27] [0:13] [143:178] [0:23] [1:35] [117:176] [1:27] [15:65] [77:100] [29:77] [23:78] [24:76] [29:132] [75:98] [15:62] [27:76] [119:167] [6:33] [5:30] [76:100] [19:50] [45:73] [30:66] [31:67] [53:116] [20:49] [77:100] [43:75] [4:23] [107:158] [16:55] [10:53] [15:79] [49:154] [17:68] [8:65] [49:154] [69:90] [9:55] [45:88] [107:171] [4:32] [4:44] [69:95] [13:37] [61:89] [21:62] [12:43] [77:146] [11:44] [20:62] [77:147] [0:34] [0:72] [77:179] [6:51] [2:60] [77:171] [54:80] [7:54] [69:104] [91:165] [5:37] [8:61] [51:88] [9:33] [70:115] [6:57] [2:34] [88:170] [0:39] [0:48] [92:180] [7:20] [8:66] [100:164] [26:71] [16:65] [85:100] [62:140] [14:50] [19:75] [22:76] [7:46] [65:150] [0:37] [0:58] [94:180] [-9.2233720368547758e+18:36] [-9.2233720368547758e+18:157] [-9.2233720368547758e+18:166] [13:64] [30:80] [77:100] [47:133] [25:65] [15:80] [10:66] [4:76] [49:165] [0:35] [0:174] [4:179] [3:50] [34:171] [4:102] [30:89] [52:104] [14:89] [-9.2233720368547758e+18:8] [-9.2233720368547758e+18:175] [-9.2233720368547758e+18:180] [19:59] [19:131] [18:120] [37:69] [35:114] [14:84] [31:83] [14:66] [49:125] [59:116] [19:54] [32:73] [76:130] [22:55] [18:53] [22:58] [75:99] [36:75] [36:69] [81:103] [19:48] [8:21] [118:159] [11:43] [0:16] [149:179] [0:14] [2:40] [123:176] [1:15] [29:74] [84:107] [14:56] [70:95] [31:84] [14:61] [95:139] [23:69] [12:26] [126:170] [7:40] [1:12] [103:135] [26:53] [18:25] [70:94] [38:73] [27:59] [34:63] [82:106] [26:51] [5:26] [114:160] [12:47] [25:64] [21:88] [34:132] [64:90] [14:73] [34:83] [83:135] [14:64] [29:46] [115:175] [2:41] [1:30] [92:128] [19:44] [32:49] [64:92] [18:50] [49:88] [26:63] [27:69] [56:124] [13:49] [6:84] [62:159] [43:79] [9:71] [59:106] [58:127] [12:65] [40:66] [93:168] [6:48] [4:47] [67:115] [16:44] [40:73] [40:84] [11:44] [60:122] [3:56] [3:55] [74:172] [12:56] [29:80] [81:105] [26:109] [37:80] [33:78] [60:124] [36:67] [13:61] [39:96] [21:65] [33:107] [10:56] [4:76] [55:165] [0:29] [-9.2233720368547758e+18:143] [-9.2233720368547758e+18:180] [13:53] [82:106] [26:76] [43:89] [65:105] [9:65] [21:52] [19:123] [17:124] [-9.2233720368547758e+18:6] [-9.2233720368547758e+18:180] [-9.2233720368547758e+18:180] [20:48] [19:132] [19:125] [15:54] [75:155] [9:74] [-9.2233720368547758e+18:27] [-9.2233720368547758e+18:177] [-9.2233720368547758e+18:180] [12:53] [4:90] [57:162] [38:94] [21:77] [39:107] [5:56] [4:61] [80:170] [45:83] [11:41] [69:118] [70:116] [16:42] [44:74] [20:51] [32:70] [83:107] [45:97] [39:73] [40:69] [21:49] [84:111] [32:66] [6:31] [117:164] [8:35] [56:95] [24:102] [19:76] [71:141] [17:88] [18:36] [84:152] [16:78] [10:25] [112:177] [1:55] [0:17] [100:144] [23:57] [11:26] [82:131] [23:63] [19:39] [57:96] [34:83] [30:77] [30:82] [12:98] [45:106] [46:127] [14:85] [32:64] [58:141] [16:80] [18:48] [87:169] [7:64] [2:34] [74:131] [22:59] [19:51] [57:114] [19:59] [30:76] [31:83] [14:70] [46:128] [12:61] [77:100] [31:79] [25:70] [82:100] [15:61] [52:88] [72:104] [7:48] [40:68] [36:112] [13:85] [23:56] [18:122] [22:124] [0:7] [-9.2233720368547758e+18:180] [-9.2233720368547758e+18:180] [8:21] [104:162] [8:62] [12:54] [85:163] [4:52] [0:47] [34:178] [0:103] [0:33] [1:170] [7:178] [10:61] [4:87] [57:164] [3:37] [90:172] [3:63] [0:34] [-9.2233720368547758e+18:172] [-9.2233720368547758e+18:176] [-9.2233720368547758e+18:28] [-9.2233720368547758e+18:66] [-9.2233720368547758e+18:180] [23:70] [7:52] [71:149] [0:37] [0:56] [98:180] [7:56] [3:34] [98:169] [50:85] [9:31] [72:116] [9:24] [12:47] [114:157] [38:68] [19:50] [79:101] [24:56] [39:75] [72:97] [32:128] [26:118] [16:48] [46:138] [28:106] [11:35] [56:142] [28:99] [7:27] [79:149] [25:83] [3:18] [72:138] [31:87] [7:29] [65:133] [31:87] [10:42] [47:120] [27:96] [14:64] [7:22] [110:162] [10:56] [5:32] [111:170] [3:45] [3:51] [94:174] [1:34] [1:60] [57:177] [1:64] [2:59] [39:174] [3:91] [-9.2233720368547758e+18:49] [-9.2233720368547758e+18:159] [-9.2233720368547758e+18:178] [0:11] [124:179] [0:45] [0:37] [104:179] [0:38] [0:46] [53:179] [0:81] [0:45] [15:143] [32:163] [0:36] [0:65] [89:180] [-9.2233720368547758e+18:27] [-9.2233720368547758e+18:180] [-9.2233720368547758e+18:50] [-9.2233720368547758e+18:36] [-9.2233720368547758e+18:169] [-9.2233720368547758e+18:158] [-9.2233720368547758e+18:35] [0:55] [-9.2233720368547758e+18:180] [0:32] [0:41] [106:180] [0:25] [0:50] [113:180] [-9.2233720368547758e+18:35] [0:29] [118:180] [0:53] [0:21] [104:179] [0:9] [-9.2233720368547758e+18:33] [-9.2233720368547758e+18:180] [6:30] [4:33] [118:169] [7:23] [10:44] [115:162] [-9.2233720368547758e+18:15] [-9.2233720368547758e+18:180] [-9.2233720368547758e+18:28] [0:19] [137:180] [0:22] [0:39] [123:180] [0:17] [0:60] [85:180] [0:36] [0:68] [68:180] [0:55] [-9.2233720368547758e+18:79] [-9.2233720368547758e+18:139] [-9.2233720368547758e+18:170] [0:8] [146:180] [0:25] [0:27] [130:180] [0:23] [0:47] [81:179] [0:54] [0:56] [31:129] [44:147] [0:66] [0:54] [70:180] [0:20] [131:179] [0:34] [-9.2233720368547758e+18:41] [-9.2233720368547758e+18:175] [-9.2233720368547758e+18:174] [0:50] [0:56] [79:180] [0:60] [0:39] [86:180] [0:22] [0:43] [124:180] [0:31] [0:27] [122:180] [-9.2233720368547758e+18:42] [-9.2233720368547758e+18:20] [-9.2233720368547758e+18:180] [0:9] [-9.2233720368547758e+18:29] [141:180] [-9.2233720368547758e+18:20] [-9.2233720368547758e+18:25] [-9.2233720368547758e+18:180] [0:13] [0:33] [133:180] [-9.2233720368547758e+18:11] [-9.2233720368547758e+18:180] [-9.2233720368547758e+18:10] [0:20] [153:180] [0:6] [0:58] [105:180] [0:23] [3:75] [45:135] [17:131] [-9.2233720368547758e+18:172] [0:73] [-9.2233720368547758e+18:130] [0:17] [145:180] [0:17] [0:58] [-9.2233720368547758e+18:178] [-9.2233720368547758e+18:180] [1:76] [1:70] [36:176] [-9.2233720368547758e+18:178] [0:54] [-9.2233720368547758e+18:129] [-9.2233720368547758e+18:42] [-9.2233720368547758e+18:47] [-9.2233720368547758e+18:180] [-9.2233720368547758e+18:61] [0:39] [81:180] [-9.2233720368547758e+18:176] [0:33] [-9.2233720368547758e+18:137] [3:28] [2:62] [98:173] [-9.2233720368547758e+18:178] [0:56] [-9.2233720368547758e+18:132] [-9.2233720368547758e+18:176] [0:70] [-9.2233720368547758e+18:135] [0:22] [145:180] [0:13] [0:75] [-9.2233720368547758e+18:169] [-9.2233720368547758e+18:175] [52:143] [2:71] [18:123] [-9.2233720368547758e+18:180] [-9.2233720368547758e+18:55] [-9.2233720368547758e+18:21] [0:54] [0:50] [76:180] [51:144] [0:43] [33:127] [89:179] [0:38] [0:54] [18:139] [2:78] [36:120] [-9.2233720368547758e+18:180] [-9.2233720368547758e+18:72] [-9.2233720368547758e+18:70] [19:130] [45:138] [3:77] [-9.2233720368547758e+18:180] [0:57] [-9.2233720368547758e+18:174] [80:180] [0:50] [0:52] [98:180] [0:44] [0:37] [-9.2233720368547758e+18:172] [-9.2233720368547758e+18:171] [0:66] [-9.2233720368547758e+18:178] [-9.2233720368547758e+18:175] [0:54] [3:27] [100:172] [4:61] [0:21] [-9.2233720368547758e+18:180] [0:30] [-9.2233720368547758e+18:28] [-9.2233720368547758e+18:180] [-9.2233720368547758e+18:20] [-9.2233720368547758e+18:8] [145:180] [-9.2233720368547758e+18:27] [-9.2233720368547758e+18:12] [-9.2233720368547758e+18:180] [-9.2233720368547758e+18:12]
tree_sizes=2446 2473 2472 2475 2468 2450 2475 2480 2467 2484 2475 2478 2473 2470 2467 2475 2475 2471 2480 2461 2506 2476 2497 2481 2480 2487 2473 2485 2465 2495 2491 2486 2497 2482 2515 2496 2487 2494 2488 2501 2494 2480 2502 2493 2500 2507 2486 2506 2493 2501 2490 2484 2485 2485 2481 2506 2497 2521 2508 2474 2534 2499 2465 2505 2514 2494 2493 2486 2497 2516 2491 2483 2499 2499 2482 2484 2508 2513 2489 2481 2511 2478 2513 2502 2518 2502 2490 2529 2514 2504 2538 2482 2492 2511 2516 2518 2496 2472 2496 2489 2524 2510 2520 2466 2517 2514 2511 2495 2514 2498 2461 2496 2494 2493 2503 2487 2514 2487 2517 2532 2510 2513 2495 2499 2511 2517 2483 2527 2486 2492 2508 2503 2500 2518 2507 2520 2523 2472 2496 2526 2524 2493 2493 2526 2477 2499 2519 2529 2490 2498 2516 2544 2494 2522 2501 2522 2519 2518 2486 2510 2493 2512 2486 2485 2503 2504 2485 2513 2509 2519 2494 2525 2505 2512 2517 2511 2523 2522 2497 2532 2518 2519 2507 2502 2535 2516 2513 2517 2519 2536 2468 2496 2509 2520 2556 2523 2540 2533 2508 2504 2534 2531 2520 2544 2474 2522 2542 2492 2528 2533 2527 2513 2528 2457 2525 2502 2495 2506 2538 2473 2545 2509 2513 2526 2537 2542 2534 2518 2519 2524 2522 2494 2529 2514 2532 2529 2472 2497 2525 2514 2548 2473 2546 2519 2533 2513 2499 2555 2546 2501 2530 2549 2501 2500 2511 2482 2514 2503 2537 2558 2488 2471 2442 2440 2538 2520 2554 2471 2546 2499 2558 2497 2538 2517 2500 2535 2524 2537 2544 2549 2483 2490 2523 2471 2491 2487 2456 2503 2460 2510 2435 2525 2547 2448 2577 2562 2481 2539 2465 2526 2522 2455 2577 2542 2547 2527 2534 2415 2532 2423 2461 2476 2482 2510 2521 2479 2482 2452 2556 2531 2527 2417 2483 2543 2509 2531 2478 2504 2474 2556 2539 2466 2507 2486 2466 2569 2448 2454 2535 2553 2436 2463 2496 2556 2502 2475 2517 2486 2449 2528 2451 2423 2433 2559 2493 2458 2540 2446 2477 2454 2408 2502 2489 2531 2398 2486 2553 2501 2426 2446 2537 2429 2471 2456 2452 2552 2427 2524 2535 2377 2539 2516 2473 2500 2528 2466 2450 2452 2418 2426 2509 2362 2484 2389 2336 2486 2415 2383 2400 2401 2476 2391 2530 2332 2373 2206 2366 2538 2399 2407 2347 2502 2542 2387 2339 2356 2430 2492 2350 2518 2404 2337 2368 2328 2496 2343 2335 2433 2328 2366 2322 2346 2382 2517 2525 2308 2317 2496 2414 2348 2346 2324 2529 2347 2264 2489 2274 2292 2307 2294 2351 2469 2496 2450 2281 2453 2452 2365 2333 2474 2357 2488 2463 2307 2286 2445 2302 2428 2325 2002 2276 2494 2305 2305 2273 2479 2294 2492 2458 2293 2322 2331 2304 2324 2404 2317 2285 2265 2261 2411 2511 2407 2403 2264 2259 2297 2256 2294 2484 2285 2427 2275 2264 2404 2462 2259 2281 2271 2270 2259 2439 2294 2267 2272 2301 2506 2466 2404 2438 2252 2297 2433 2461 2351 2453 2295 1766 2257 2295 2303 2506 2253 2343 2271 2295 2381 2263 2260 2443 2379 2370 2254 2388 2422 2260 2253 2263 2292 2421 2266 2247 2306 2472 2394 2244 2459 2415 2262 2277 2272 2432 2364 2415 2392 2252 2282 2263 2448 2427 2373 2263 2270 2397 2467 2269 2423 2399 2388 2369 2464 2263 2428 2270 2332 2251 2462 2258 2431 2400 2474 2427 2453 2281 2418 2422 2287 2372 2475 2296 2253 2252 2414 2286 2440 2435 2373 2412 2283 2260 2298 2267 2250 2461 2274 2271 2269 2408 2255 2247 2269 2408 1784 2235 2476 2238 2288 2232 2293 2391 2330 2254 2266 2372 2388 2242 2296 2232 2377 2425 2286 2418 2369 2239 2401 2243 2288 2288 2254 1743 2361 2244 2356 2392 2375 2252 2242 2381 2251 2375 2273 2359 2274 2375 1984 2349 2393 2387 2421 2266 2286 2378 2259 1985 2261 2257 2276 2274 2403 2246 2263 2075 2403 2265 2262 2354 2247 2403 2370 2250 2065 2333 2411 2256 2265 2398 2158 2261 2233 2403 2234 2232 2258 2384 2359 2403 2377 2384 2269 2246 2264 2372 2365 2250 2247 2377 2249 2297 2324 2369 2366 2245 2341 2257 2256 1764 2250 2315 2266 2363 2242 2369 2366 2237 2319 2133 2380 2405 2256 2252 2250 2363 1788 2156 2237 2308 1843 2261 2249 2379 2238 2151 2314 2232 2336 2237 2405 2294 2252 2270 2324 2242 2251 2119 2137 2332 2251 2323 2361 2275 2353 2317 2324 2343 2259 2243 2141 2062 2229 2342 2281 2155 2232 2281 2327 2243 2306 2353 2335 2029 2260 2052 2298 1986 2374 2232 2296 2378 2347 2258 2371 2262 2304 2357 2320 2334 2343 2239 2151 2317 2252 2238 2362 2258 2330 2252 2268 2295 2227 2330 2307 2160 2318 2256 2232 2227 2342 2315 2246 2237 2245 1962 2156 2061 2331 2320 2137 2143 2327 2235 2231 2149 1866 1948 2327 2339 2326 1975 2275 2328 2235 2342 1957 2227 2323 2155 2152 2356 2297 2304 2224 1944 2053 2293 2287 2046 2090 1858 2334 2243 2324 2327 2149 2323 1759 2362 2147 2316 2137 2324 2306 2296 2077 2324 2142 1868 2061 1966 1881 2328 2236 1781 2135 2158 2057 2302 2301 2279 2282 2257 2253 1866 2318 2136 1859 2320 2335 1946 2323 2289 2314 2044 2342 2322 2238 2244 2330 2293 2280 2361 2304 2333 2311 2366 2257 1975 2240 2282 2361 2254 2228 2276 2321 2139 2221 2133 2313 2302 1961 2374 1967 1835 2231 2299 2239 2316 2352 2258 2048 2052 1746 1980 2315 2057 2333 2134 2027 2060 2298 2047 2252 1885 1842 1761 2320 1767 2318 2310 2354 2294 2236 1863 1857 2339 2300 2325 2227 2317 2044 2345 2144 2317 2320 2041 2249 2310 2326 2356 1953 2300 2329 2145 2232 2311 2253 2311 2184 1861 2321 2158 2365

Tree=0
num_leaves=22
num_cat=0
split_feature=531 1298 3096 2179 2815 931 1993 3193 1020 3311 2303 3198 433 2300 1613 1301 631 3122 221 613 3026
split_gain=61.044 18.4434 21.7868 36.386 22.4908 21.3819 20.246 14.6092 21.2239 13.4156 11.4064 15.9914 18.0679 10.3093 15.6987 19.1507 11.2592 9.02393 21.5437 5.40082 5.02281
threshold=87.500000000000014 78.500000000000014 111.50000000000001 12.500000000000002 88.500000000000014 176.50000000000003 36.500000000000007 128.50000000000003 13.500000000000002 142.50000000000003 59.500000000000007 21.500000000000004 172.50000000000003 47.500000000000007 144.50000000000003 68.500000000000014 25.500000000000004 179.50000000000003 173.50000000000003 176.50000000000003 169.50000000000003
decision_type=2 2 2 2 2 2 2 2 2 2 2 2 2 2 2 2 2 2 2 2 2
left_child=1 -1 3 -3 9 7 -7 -6 -9 -5 20 19 -13 16 15 -15 -11 -18 -19 -12 -4
right_child=-2 2 10 4 5 6 -8 8 -10 13 11 12 -14 14 -16 -17 17 18 -20 -21 -22
leaf_value=-0.21920942937328669 -0.19909696712406524 -0.20882290292590489 -0.26374652597848608 -0.22775249853791807 -0.27406932093384667 -0.24379814163094796 -0.18619421350498311 -0.21363606058113102 -0.27338248381417762 -0.24115685481800969 -0.27932484601146823 -0.20464189353883089 -0.25932895066166028 -0.25862336392494401 -0.27305012521974564 -0.20270182143913487 -0.27504334158104671 -0.22785958611088813 -0.27929190320852987 -0.25222464524158983 -0.27577919023449821
leaf_weight=3.1034178882837287 4.8767995387315741 4.5812359303235999 14.187053203582762 2.9556360840797415 6.5023993849754351 4.2856723219156256 3.1034178882837296 4.1378905177116394 2.9556360840797424 3.9901087135076514 6.6501811891794222 2.9556360840797415 4.2856723219156265 4.1378905177116376 5.4679267555475235 3.1034178882837296 35.024287596344948 4.2856723219156247 5.3201449513435364 3.1034178882837296 37.388796463608742
leaf_count=21 33 31 96 20 44 29 21 28 20 27 45 20 29 28 37 21 237 29 36 21 253
internal_value=-0.258623 -0.260421 -0.261233 -0.255709 -0.258238 -0.242878 -0.219485 -0.255656 -0.238653 -0.263238 -0.268486 -0.256396 -0.237128 -0.264963 -0.251308 -0.23477 -0.26855 -0.271019 -0.256436 -0.270613 -0.272486
internal_weight=0 161.526 158.422 89.8513 85.2701 20.985 7.38909 13.5959 7.09353 64.2851 68.5708 16.9949 7.24131 61.3294 12.7092 7.24131 48.6202 44.6301 9.60582 9.7536 51.5758
internal_count=1126 1093 1072 608 577 142 50 92 48 435 464 115 49 415 86 49 329 302 65 66 349
is_linear=0
shrinkage=0.170774


Tree=1
num_leaves=22
num_cat=0
split_feature=1289 86 892 2281 1834 169 89 1412 1133 1944 841 2921 2787 77 3166 1445 2900 2417 1601 1546 979
split_gain=41.1822 17.433 19.7284 18.2855 20.2047 25.6485 17.0673 16.6813 14.644 14.6227 10.6071 12.3148 9.98865 10.7006 9.03466 13.688 8.11013 10.6165 7.09048 7.07564 9.90604
threshold=70.500000000000014 76.500000000000014 46.500000000000007 97.500000000000014 55.500000000000007 35.500000000000007 67.500000000000014 41.500000000000007 155.50000000000003 21.500000000000004 27.500000000000004 26.500000000000004 32.500000000000007 66.500000000000014 59.500000000000007 18.500000000000004 174.50000000000003 153.50000000000003 179.50000000000003 74.500000000000014 172.50000000000003
decision_type=2 2 2 2 2 2 2 2 2 2 2 2 2 2 2 2 2 2 2 2 2
left_child=1 -1 9 -4 6 14 7 -5 -8 10 11 18 -13 16 -6 -16 -14 19 -3 -18 -21
right_child=-2 2 3 4 5 -7 8 -9 -10 -11 -12 12 13 -15 15 -17 17 -19 -20 20 -22
leaf_value=0.040185916544121569 0.047658776726630867 -0.0170558737705283 -0.013155899216583838 -0.0082640543561586979 -0.013562361349537911 0.040494765405991909 0.0094857316552767624 0.03099421198621384 0.053033312200822851 0.023557975077658035 -0.016907298754074197 0.02677373003226657 -0.015899613117510793 0.020210098784804186 0.028155500646174815 -0.012715325533625062 -0.017518034353539852 0.023783277029939643 0.00381315950112073 -0.014306334440070937 0.028107527683484519
leaf_weight=2.6845707744359961 4.7793049216270438 22.510350286960605 12.066168934106825 6.9081620872020739 15.463022157549863 3.7491464912891379 3.2639351338148099 5.1290543973445892 6.220471978187561 4.1095435917377463 27.273303344845772 3.8300033360719672 11.748725771903993 5.2950480729341498 4.3806340992450696 4.5344511866569519 6.6790370941162127 4.475794404745101 5.4555674791336051 2.9369391798973083 3.0469557493925095
leaf_count=16 28 157 84 46 108 23 21 34 37 27 192 25 80 36 28 31 46 30 37 20 20
internal_value=0 -0.00153647 -0.00224592 0.00505216 0.00949431 0.000247011 0.0215405 0.00839382 0.0381364 -0.00688068 -0.00823118 -0.00463193 0.00146883 -0.00134184 -0.00590826 0.00727282 -0.00532162 0.00188043 -0.0129545 -0.00579469 0.0071494
internal_weight=0 161.761 159.076 61.715 49.6489 28.1273 21.5216 12.0372 9.48441 97.3613 93.2517 65.9784 38.0125 34.1825 24.3781 8.91509 28.8875 17.1387 27.9659 12.6629 5.98389
internal_count=1126 1098 1082 412 328 190 138 80 58 670 643 451 257 232 167 59 196 116 194 86 40
is_linear=0
shrinkage=0.0165172


Tree=2
num_leaves=22
num_cat=0
split_feature=103 2395 3249 86 1156 2787 260 2020 3406 2022 807 3246 2901 833 2177 2735 2761 485 2678 1133 1842
split_gain=32.6982 19.8552 16.3595 16.1944 13.7901 16.3349 18.5251 11.3283 10.5564 9.7653 10.3063 12.8643 8.87603 9.99294 8.03547 12.3426 5.72809 16.5187 5.87539 5.39123 4.64563
threshold=41.500000000000007 113.50000000000001 12.500000000000002 78.500000000000014 46.500000000000007 43.500000000000007 152.50000000000003 125.50000000000001 134.50000000000003 14.500000000000002 14.500000000000002 21.500000000000004 31.500000000000004 117.50000000000001 106.50000000000001 120.50000000000001 172.50000000000003 19.500000000000004 178.50000000000003 160.50000000000003 22.500000000000004
decision_type=2 2 2 2 2 2 2 2 2 2 2 2 2 2 2 2 2 2 2 2 2
left_child=-1 2 7 -3 5 6 -4 -2 -7 16 19 14 -8 -14 -12 -16 18 -18 20 -11 -5
right_child=1 3 4 9 -6 8 12 -9 -10 10 11 -13 13 -15 15 -17 17 -19 -20 -21 -22
leaf_value=0.064754525465619023 0.031442186804145393 0.028676821194613195 -0.0066351716753550553 0.0090357447961625977 0.06496746316295704 0.027840429610064353 0.073802906235225854 -0.015011325350955671 -0.022288760790601377 -0.025002920830184294 -0.022552720975229465 0.048209853466656967 0.052213057117870894 -0.00031913611648787976 -0.013605173998105813 0.050230546204788097 0.035638252426489672 -0.01693069039798762 0.012827005934948604 0.0089395313568666705 -0.020093435885238223
leaf_weight=4.0627192109823218 3.4319410026073482 6.3008921295404425 5.3533029705286124 3.0556290298700324 3.3620212823152533 3.2128382027149183 3.9560301005840284 15.856621056795118 7.5825165808200836 7.8661297559738177 4.4752578288316709 4.4406869113445273 4.7574226558208466 3.2323248833417892 3.2700530588626862 3.2167860269546509 4.6196511983871451 10.628905579447745 3.3494877964258185 3.6481392383575439 56.248777896165848
leaf_count=21 22 37 37 21 18 20 21 111 52 56 32 27 27 20 23 21 29 77 23 24 407
internal_value=0 -0.00191985 0.0101011 -0.00742012 0.0204314 0.0150593 0.0290558 -0.0066843 -0.00725949 -0.00960134 0.00241487 0.0148717 0.0451494 0.0308124 0.00125781 0.0178679 -0.0137685 -0.000926532 -0.0168749 -0.0141456 -0.0185725
internal_weight=0 161.865 50.745 111.12 31.4565 28.0944 17.2991 19.2886 10.7954 104.82 26.9171 15.4028 11.9458 7.98975 10.9621 6.48684 77.9025 15.2486 62.6539 11.5143 59.3044
internal_count=1126 1105 328 777 195 177 105 133 72 740 183 103 68 47 76 44 557 106 451 80 428
is_linear=0
shrinkage=0.0232133


Tree=3
num_leaves=22
num_cat=0
split_feature=529 2353 3339 2778 3099 2379 845 2155 2885 2088 2557 1088 85 2058 2166 185 1354 596 2811 33 912
split_gain=24.933 13.595 13.5647 14.5179 13.2591 20.3101 10.9311 10.2892 12.1409 16.1597 9.72809 21.3327 11.7421 8.5544 8.13612 8.03865 7.44551 10.5744 7.68926 7.28726 7.1321
threshold=83.500000000000014 23.500000000000004 89.500000000000014 143.50000000000003 100.50000000000001 37.500000000000007 107.50000000000001 22.500000000000004 59.500000000000007 99.500000000000014 174.50000000000003 79.500000000000014 91.500000000000014 75.500000000000014 21.500000000000004 99.500000000000014 115.50000000000001 80.500000000000014 52.500000000000007 9.5000000000000018 9.5000000000000018
decision_type=2 2 2 2 2 2 2 2 2 2 2 2 2 2 2 2 2 2 2 2 2
left_child=1 13 -2 4 5 -4 16 -7 9 -9 12 -12 14 -1 -8 -11 -5 18 20 -16 -18
right_child=2 -3 3 6 -6 7 10 8 -10 15 11 -13 -14 -15 19 -17 17 -19 -20 -21 -22
leaf_value=0.057374077928417713 -0.017205465450644636 -0.0034790601682845876 0.050812608645064594 -0.016359689661288514 -0.018385527444342794 0.034407845272415652 0.020194982445811076 0.0375661680646154 -0.022250698196094071 -0.0099794354938631692 -0.0014370105289169921 0.056538463358526296 0.029187872782391471 0.017596074567035307 0.016934033838169542 0.018780381148829874 -0.015089929578306668 0.020344674048714161 -0.018919488907738348 -0.012698358399858847 0.024841662879574226
leaf_weight=4.3866096287965757 18.512756250798702 3.5862833485007286 4.4168961122632018 28.448379151523113 5.1751612499356261 4.3573683947324779 3.6895749792456654 5.3667551353573861 5.095742665231227 9.7993154153227788 6.0895623415708524 3.4156709685921669 3.7435472756624213 3.4196200892329216 3.2357522994279888 5.1305939406156531 2.7681983783841195 5.5226905941963187 10.683713629841803 24.314949423074722 3.4781212210655212
leaf_count=21 140 22 25 213 39 25 22 31 37 65 42 19 20 19 22 31 21 36 78 174 24
internal_value=0 0.0262785 -0.00226412 -0.00020403 0.00930336 0.0135253 -0.00413516 0.00795708 0.00338044 0.0098625 0.00258812 0.0192965 -0.00192444 0.0400714 -0.00568324 -3.23916e-05 -0.0100302 -0.00196807 -0.00930299 -0.00918349 0.00699265
internal_weight=0 11.3925 153.245 134.732 39.3418 34.1667 95.3902 29.7498 25.3924 20.2967 44.4891 9.50523 34.9838 7.80623 31.2403 14.9299 50.9011 22.4527 16.93 27.5507 6.24632
internal_count=1126 62 1064 924 253 214 671 189 164 127 299 61 238 40 218 96 372 159 123 196 45
is_linear=0
shrinkage=0.0186149


Tree=4
num_leaves=22
num_cat=0
split_feature=103 2395 2954 990 86 1614 123 269 80 2702 3359 2520 2285 1202 1277 668 2551 2221 3385 1317 3381
split_gain=19.4479 13.2769 12.6786 12.821 10.7091 10.2417 14.5331 11.3107 13.9505 9.67155 8.53861 8.46093 10.6844 11.2808 11.5452 14.3651 11.4914 12.3604 11.1127 7.53051 7.36701
threshold=41.500000000000007 113.50000000000001 22.500000000000004 80.500000000000014 78.500000000000014 15.500000000000002 56.500000000000007 173.50000000000003 81.500000000000014 129.50000000000003 94.500000000000014 4.5000000000000009 166.50000000000003 129.50000000000003 133.50000000000003 91.500000000000014 175.50000000000003 104.50000000000001 29.500000000000004 38.500000000000007 94.500000000000014
decision_type=2 2 2 2 2 2 2 2 2 2 2 2 2 2 2 2 2 2 2 2 2
left_child=-1 2 -2 5 -3 10 7 8 -7 -10 -4 12 13 14 20 16 18 -18 -16 -9 -6
right_child=1 4 3 -5 11 6 -8 19 9 -11 -12 -13 -14 -15 15 -17 17 -19 -20 -21 -22
leaf_value=0.032565406843494078 -0.015025889289267159 0.015070453646296165 0.036721448427531 -0.016635453518205227 -0.017178671193077682 0.040335114931178841 -0.012354881245977171 -0.019367803112942623 -0.011723005670182255 0.025996637040744744 0.0070233739817798209 -0.01114608880226973 -0.014484826873550528 -0.017065128187437148 -0.010591685957349354 0.046189036467291965 0.046575726608461099 0.0010826337521851112 0.025196705497452947 0.013903556101799814 0.010099072214213703
leaf_weight=4.7358656376600257 7.0108526498079291 6.9645157754421225 6.8218169361352903 4.7937076315283766 7.0792184919118863 6.4077939614653641 7.9332612305879584 3.6803136169910422 3.6859070882201195 3.6477068886160851 4.3895574361085892 46.411807544529438 12.961450085043905 6.5142037346959105 9.091203220188623 3.1455865055322638 3.5354224368929854 3.0549077764153481 3.1671167016029349 3.6752688586711884 4.2786286994814873
leaf_count=21 53 37 36 33 54 33 53 28 24 19 26 356 101 50 69 19 19 22 20 23 30
internal_value=0 -0.00128316 0.00551995 0.00873715 -0.00462502 0.0117806 0.00658086 0.0137414 0.0225655 0.00692386 0.0251692 -0.00601573 -0.00149249 0.00271053 0.00659834 0.0135704 0.00808179 0.0256159 -0.00127637 -0.00262909 -0.00682869
internal_weight=0 158.25 52.0462 45.0353 106.204 40.2416 29.0303 21.097 13.7414 7.33361 11.2114 99.2395 52.8277 39.8663 33.3521 21.9942 18.8487 6.59033 12.2583 7.35558 11.3578
internal_count=1126 1105 328 275 777 242 180 127 76 43 62 740 384 283 233 149 130 41 89 51 84
is_linear=0
shrinkage=0.0164599


Tree=5
num_leaves=22
num_cat=0
split_feature=531 3348 2433 196 303 1986 3109 409 1714 563 1710 200 2815 3311 2240 1451 959 777 2022 2045 2449
split_gain=17.8989 10.681 15.1749 17.9405 15.1886 13.2991 11.0244 9.08597 6.78679 15.4007 10.7459 9.47864 8.93286 8.04128 9.77984 10.7221 9.96087 6.93824 6.55659 7.92077 6.1645
threshold=87.500000000000014 80.500000000000014 33.500000000000007 23.500000000000004 9.5000000000000018 36.500000000000007 96.500000000000014 93.500000000000014 118.50000000000001 66.500000000000014 13.500000000000002 1.0000000180025095e-35 90.500000000000014 174.50000000000003 177.50000000000003 71.500000000000014 157.50000000000003 29.500000000000004 6.5000000000000009 45.500000000000007 42.500000000000007
decision_type=2 2 2 2 2 2 2 2 2 2 2 2 2 2 2 2 2 2 2 2 2
left_child=1 18 3 4 6 7 8 -6 11 10 -10 -3 13 14 15 -12 -16 -13 19 -1 -17
right_child=-2 2 -4 -5 5 -7 -8 -9 9 -11 12 17 -14 -15 16 20 -18 -19 -20 -21 -22
leaf_value=0.027922406040306012 0.027306175116646562 0.023295967949601037 0.037861919812112128 -0.017443437984411749 -0.013167909308630201 0.032920721478261257 -0.01969490200532252 0.024762813006066087 0.029602475951616049 0.044097411141285535 0.020657271824935489 -0.014181185162475594 0.02660504070195796 -0.01377857121962185 0.044241725252298504 -0.018334097939107542 0 0.016786308730769348 -0.015612065599271684 -0.015135510214437995 0.0067546975477936434
leaf_weight=2.7638524323701885 7.2985075563192359 3.1060189902782467 3.4820891469717017 17.37237773835659 5.2966953068971652 9.0973912850022298 8.9822742566466314 3.3815761134028435 4.416797660291194 3.1402056142687789 4.7184702828526559 19.380507290363315 3.7719016820192328 13.667415976524351 3.3534705862402907 10.365779876708983 3.252947635948658 2.669990047812461 23.868832461535931 2.8021687194705009 4.5718705132603636
leaf_count=18 33 21 21 136 34 47 70 17 29 18 28 150 21 104 19 77 24 18 189 23 29
internal_value=0 -0.00168232 0.000635197 -0.000432497 0.00242286 0.0176357 -0.000732908 0.00150569 0.00148391 0.00526983 0.00271662 -0.00619349 0 -0.00251405 0.00331297 -0.00304447 0.0223681 -0.0103894 -0.0114789 0.00607913 -0.0105934
internal_weight=0 153.463 124.028 120.546 103.173 17.7757 85.3977 8.67827 76.4154 51.2589 48.1187 25.1565 43.7019 39.93 26.2625 19.6561 6.60642 22.0505 29.4349 5.56602 14.9377
internal_count=1126 1093 863 842 706 98 608 51 538 349 331 189 302 281 177 134 43 168 230 41 106
is_linear=0
shrinkage=0.0180871


Tree=6
num_leaves=22
num_cat=0
split_feature=529 925 3109 2751 2312 888 1 2136 2784 2022 3198 2305 2302 2515 1834 2516 3361 2273 3415 1407 2998
split_gain=14.2931 10.5061 10.4675 10.8381 11.1557 13.2379 12.4901 12.2211 16.1354 10.7913 11.0774 10.6288 9.31262 9.06225 11.0365 8.56052 8.74379 10.4981 8.51844 7.68296 6.2686
threshold=83.500000000000014 115.50000000000001 96.500000000000014 16.500000000000004 46.500000000000007 99.500000000000014 177.50000000000003 38.500000000000007 53.500000000000007 14.500000000000002 27.500000000000004 170.50000000000003 105.50000000000001 83.500000000000014 55.500000000000007 72.500000000000014 175.50000000000003 36.500000000000007 172.50000000000003 104.50000000000001 69.500000000000014
decision_type=2 2 2 2 2 2 2 2 2 2 2 2 2 2 2 2 2 2 2 2 2
left_child=18 2 3 4 5 7 15 8 -2 10 -5 -9 -8 14 -10 16 17 -7 -1 -19 -15
right_child=1 -3 -4 9 -6 6 12 11 13 -11 -12 -13 -14 20 -16 -17 -18 19 -20 -21 -22
leaf_value=0.034450979095919862 0.040119918215016453 -0.018754722616171907 -0.019749811129406374 -0.012691460606102623 -0.021469704752875147 0.03143049640816345 0.027695615103633699 0.045413281407557696 0.027337770369986369 0.040225574322603541 0.026729993993376854 0.0097938637046976265 -0.0035057746141609267 -0.018290514540813974 -0.012451607145909049 -0.014888786412704162 -0.016695843479966079 -0.021788245394591128 0.003230873772723472 0.01566850852048823 0.011625727147615197
leaf_weight=6.0610304027795774 3.3821575418114689 11.812320202589033 9.0667836740612966 5.3492568060755712 8.5065537691116315 4.815139055252077 6.2617028057575208 4.9519593194127065 5.7370162382721919 4.3952803984284392 4.4789085313677788 7.0525375455617905 6.7910443097352982 11.788094475865362 4.0596397593617439 31.109946340322495 6.3308741301298133 3.8654244616627693 6.0727482587099075 3.6331119611859322 2.9754149839282027
leaf_count=27 20 100 76 40 73 28 37 24 32 23 25 40 52 86 34 253 50 30 35 23 18
internal_value=0 -0.00200837 -0.00053114 0.000849962 -0.00108786 0.000590263 -0.0047005 0.00893248 0.00218188 0.0160748 0.00517746 0.0245664 0.0113898 -0.00300413 0.0107528 -0.00894073 0.000933306 0.0100741 0.0189041 -0.00351379 -0.012197
internal_weight=0 146.363 134.551 125.484 111.261 102.754 62.8072 39.9468 27.9423 14.2234 9.82817 12.0045 13.0527 24.5602 9.79666 49.7545 18.6445 12.3137 12.1338 7.49854 14.7635
internal_count=1126 1064 964 888 800 727 473 254 190 88 65 64 89 170 66 384 131 81 62 53 104
is_linear=0
shrinkage=0.0185175


Tree=7
num_leaves=22
num_cat=0
split_feature=531 3348 2536 1279 86 846 1028 3074 1419 2177 2773 1226 2216 1638 1386 1904 854 2171 3323 1253 3390
split_gain=19.8874 11.5457 15.7523 12.5982 13.8779 13.7066 13.2718 12.1725 13.0567 9.04447 9.70066 8.71882 8.31801 7.71893 9.19311 6.85247 6.68943 6.14744 4.90939 4.84193 7.47067
threshold=87.500000000000014 80.500000000000014 77.500000000000014 30.500000000000004 77.500000000000014 42.500000000000007 23.500000000000004 8.5000000000000018 106.50000000000001 109.50000000000001 78.500000000000014 153.50000000000003 148.50000000000003 39.500000000000007 60.500000000000007 146.50000000000003 40.500000000000007 40.500000000000007 16.500000000000004 177.50000000000003 84.500000000000014
decision_type=2 2 2 2 2 2 2 2 2 2 2 2 2 2 2 2 2 2 2 2 2
left_child=1 16 7 4 -4 -5 12 8 15 19 -11 -10 -7 18 -15 -3 -1 -16 -9 -6 -21
right_child=-2 2 3 5 9 6 -8 13 11 10 -12 -13 -14 14 17 -17 -18 -19 -20 20 -22
leaf_value=-0.0087568068266672596 0.018130674307555921 -0.013113497091230998 0.014625212726673754 -0.013226074378308954 -0.0093438438075383184 0.010919217793934274 0.024333453899768216 0.030759005244932702 0.021947902819640274 -0.0095016745876887916 0.016910136638939307 -0.00048892922612065674 -0.010330396023823858 0.020516564930495151 -0.010500621286652802 0.0038137369514171611 0.0098446324054983613 0.010929531976683927 0.012995715139800948 0.0083609790628437486 -0.0086705537500893631
leaf_weight=26.895172074437145 7.1656009554862967 7.72024764865637 4.3945086598396292 3.7001163139939335 39.931516975164413 5.8725485652685148 5.5497423186898223 3.704483315348627 4.4764906391501409 2.913377232849597 4.1566717550158501 4.0271078944206238 3.7143156602978706 3.788644537329672 3.8013529703021049 4.7380957156419754 2.6007976531982413 2.9322981759905815 4.3658072128891945 5.4834474846720678 7.5954987555742264
leaf_count=215 33 61 22 29 315 35 30 17 26 21 25 28 27 23 28 31 15 18 27 38 62
internal_value=0 -0.000842407 0.000654546 -0.0020863 -0.00443077 0.00590819 0.0106232 0.00644183 0.000598369 -0.0058341 0.00594602 0.0112555 0.00262688 0.0129993 0.0066396 -0.00663013 -0.00709729 -0.00108385 0.0212205 -0.00741598 -0.0014864
internal_weight=0 152.362 122.866 83.3117 64.475 18.8367 15.1366 39.5545 20.9619 60.0805 7.07005 8.5036 9.58686 18.5926 10.5223 12.4583 29.496 6.73365 8.07029 53.0105 13.0789
internal_count=1126 1093 863 604 483 121 92 259 146 461 46 54 62 113 69 92 230 46 44 415 100
is_linear=0
shrinkage=0.0111301


Tree=8
num_leaves=22
num_cat=0
split_feature=531 2312 2285 2869 1976 1318 2435 742 3026 1834 2312 1470 937 86 852 943 3217 3113 2885 562 2886
split_gain=13.1493 8.44724 12.035 9.54158 9.56084 11.3085 11.0409 8.89046 8.6072 7.24641 8.18147 6.37112 6.12985 7.59403 8.29188 9.93563 9.54361 9.33493 12.2899 8.1134 8.94359
threshold=89.500000000000014 46.500000000000007 160.50000000000003 33.500000000000007 131.50000000000003 95.500000000000014 83.500000000000014 30.500000000000004 168.50000000000003 55.500000000000007 43.500000000000007 46.500000000000007 88.500000000000014 78.500000000000014 51.500000000000007 175.50000000000003 51.500000000000007 36.500000000000007 59.500000000000007 56.500000000000007 45.500000000000007
decision_type=2 2 2 2 2 2 2 2 2 2 2 2 2 2 2 2 2 2 2 2 2
left_child=1 2 3 7 -5 6 9 -1 -8 -6 -11 -10 -4 -14 15 16 -15 19 -19 -16 -21
right_child=-2 -3 12 4 5 -7 8 -9 11 10 -12 -13 13 14 17 -17 -18 18 -20 20 -22
